|--- age 
|  |--- 0-30 
|  |  |  |--- bmi 
|  |  |  |--- 0-18 ==> healthy
|  |  |  |--- 19-25 ==> healthy
|  |  |  |--- 26-30 
|  |  |  |  |  |--- work_type_children 
|  |  |  |  |  |--- 0 ==> healthy
|  |  |  |  |  |--- 1 
|  |  |  |  |  |  |  |--- residence_type_rural 
|  |  |  |  |  |  |  |--- 0 ==> healthy
|  |  |  |  |  |  |  |--- 1 
|  |  |  |  |  |  |  |  |  |--- gender_female 
|  |  |  |  |  |  |  |  |  |--- 0 ==> healthy
|  |  |  |  |  |  |  |  |  |--- 1 
|  |  |  |  |  |  |  |  |  |  |  |--- avg_glucose_level 
|  |  |  |  |  |  |  |  |  |  |  |--- 0-110 
|  |  |  |  |  |  |  |  |  |  |  |  |  |--- hypertension 
|  |  |  |  |  |  |  |  |  |  |  |  |  |--- 0 
|  |  |  |  |  |  |  |  |  |  |  |  |  |  |  |--- heart_disease 
|  |  |  |  |  |  |  |  |  |  |  |  |  |  |  |--- 0 
|  |  |  |  |  |  |  |  |  |  |  |  |  |  |  |  |  |--- gender_male 
|  |  |  |  |  |  |  |  |  |  |  |  |  |  |  |  |  |--- 0 
|  |  |  |  |  |  |  |  |  |  |  |  |  |  |  |  |  |  |  |--- gender_other 
|  |  |  |  |  |  |  |  |  |  |  |  |  |  |  |  |  |  |  |--- 0 
|  |  |  |  |  |  |  |  |  |  |  |  |  |  |  |  |  |  |  |  |  |--- ever_married_no 
|  |  |  |  |  |  |  |  |  |  |  |  |  |  |  |  |  |  |  |  |  |--- 0 ==> ???
|  |  |  |  |  |  |  |  |  |  |  |  |  |  |  |  |  |  |  |  |  |--- 1 
|  |  |  |  |  |  |  |  |  |  |  |  |  |  |  |  |  |  |  |  |  |  |  |--- ever_married_yes 
|  |  |  |  |  |  |  |  |  |  |  |  |  |  |  |  |  |  |  |  |  |  |  |--- 0 
|  |  |  |  |  |  |  |  |  |  |  |  |  |  |  |  |  |  |  |  |  |  |  |  |  |--- residence_type_urban 
|  |  |  |  |  |  |  |  |  |  |  |  |  |  |  |  |  |  |  |  |  |  |  |  |  |--- 0 
|  |  |  |  |  |  |  |  |  |  |  |  |  |  |  |  |  |  |  |  |  |  |  |  |  |  |  |--- smoking_status_unknown 
|  |  |  |  |  |  |  |  |  |  |  |  |  |  |  |  |  |  |  |  |  |  |  |  |  |  |  |--- 0 ==> ???
|  |  |  |  |  |  |  |  |  |  |  |  |  |  |  |  |  |  |  |  |  |  |  |  |  |  |  |--- 1 
|  |  |  |  |  |  |  |  |  |  |  |  |  |  |  |  |  |  |  |  |  |  |  |  |  |  |  |  |  |--- smoking_status_formerly_smoked 
|  |  |  |  |  |  |  |  |  |  |  |  |  |  |  |  |  |  |  |  |  |  |  |  |  |  |  |  |  |--- 0 
|  |  |  |  |  |  |  |  |  |  |  |  |  |  |  |  |  |  |  |  |  |  |  |  |  |  |  |  |  |  |  |--- smoking_status_never_smoked 
|  |  |  |  |  |  |  |  |  |  |  |  |  |  |  |  |  |  |  |  |  |  |  |  |  |  |  |  |  |  |  |--- 0 
|  |  |  |  |  |  |  |  |  |  |  |  |  |  |  |  |  |  |  |  |  |  |  |  |  |  |  |  |  |  |  |  |  |--- smoking_status_smokes 
|  |  |  |  |  |  |  |  |  |  |  |  |  |  |  |  |  |  |  |  |  |  |  |  |  |  |  |  |  |  |  |  |  |--- 0 
|  |  |  |  |  |  |  |  |  |  |  |  |  |  |  |  |  |  |  |  |  |  |  |  |  |  |  |  |  |  |  |  |  |  |  |--- work_type_govt_job 
|  |  |  |  |  |  |  |  |  |  |  |  |  |  |  |  |  |  |  |  |  |  |  |  |  |  |  |  |  |  |  |  |  |  |  |--- 0 
|  |  |  |  |  |  |  |  |  |  |  |  |  |  |  |  |  |  |  |  |  |  |  |  |  |  |  |  |  |  |  |  |  |  |  |  |  |--- work_type_never_worked 
|  |  |  |  |  |  |  |  |  |  |  |  |  |  |  |  |  |  |  |  |  |  |  |  |  |  |  |  |  |  |  |  |  |  |  |  |  |--- 0 
|  |  |  |  |  |  |  |  |  |  |  |  |  |  |  |  |  |  |  |  |  |  |  |  |  |  |  |  |  |  |  |  |  |  |  |  |  |  |  |--- work_type_private 
|  |  |  |  |  |  |  |  |  |  |  |  |  |  |  |  |  |  |  |  |  |  |  |  |  |  |  |  |  |  |  |  |  |  |  |  |  |  |  |--- 0 
|  |  |  |  |  |  |  |  |  |  |  |  |  |  |  |  |  |  |  |  |  |  |  |  |  |  |  |  |  |  |  |  |  |  |  |  |  |  |  |  |  |--- work_type_self_employed 
|  |  |  |  |  |  |  |  |  |  |  |  |  |  |  |  |  |  |  |  |  |  |  |  |  |  |  |  |  |  |  |  |  |  |  |  |  |  |  |  |  |--- 0 ==> [sick,healthy]
|  |  |  |  |  |  |  |  |  |  |  |  |  |  |  |  |  |  |  |  |  |  |  |  |  |  |  |  |  |  |  |  |  |  |  |  |  |  |  |  |  |--- 1 ==> ???
|  |  |  |  |  |  |  |  |  |  |  |  |  |  |  |  |  |  |  |  |  |  |  |  |  |  |  |  |  |  |  |  |  |  |  |  |  |  |  |--- 1 ==> ???
|  |  |  |  |  |  |  |  |  |  |  |  |  |  |  |  |  |  |  |  |  |  |  |  |  |  |  |  |  |  |  |  |  |  |  |  |  |--- 1 ==> ???
|  |  |  |  |  |  |  |  |  |  |  |  |  |  |  |  |  |  |  |  |  |  |  |  |  |  |  |  |  |  |  |  |  |  |  |--- 1 ==> ???
|  |  |  |  |  |  |  |  |  |  |  |  |  |  |  |  |  |  |  |  |  |  |  |  |  |  |  |  |  |  |  |  |  |--- 1 ==> ???
|  |  |  |  |  |  |  |  |  |  |  |  |  |  |  |  |  |  |  |  |  |  |  |  |  |  |  |  |  |  |  |--- 1 ==> ???
|  |  |  |  |  |  |  |  |  |  |  |  |  |  |  |  |  |  |  |  |  |  |  |  |  |  |  |  |  |--- 1 ==> ???
|  |  |  |  |  |  |  |  |  |  |  |  |  |  |  |  |  |  |  |  |  |  |  |  |  |--- 1 ==> ???
|  |  |  |  |  |  |  |  |  |  |  |  |  |  |  |  |  |  |  |  |  |  |  |--- 1 ==> ???
|  |  |  |  |  |  |  |  |  |  |  |  |  |  |  |  |  |  |  |--- 1 ==> ???
|  |  |  |  |  |  |  |  |  |  |  |  |  |  |  |  |  |--- 1 ==> ???
|  |  |  |  |  |  |  |  |  |  |  |  |  |  |  |--- 1 ==> ???
|  |  |  |  |  |  |  |  |  |  |  |  |  |--- 1 ==> ???
|  |  |  |  |  |  |  |  |  |  |  |--- 111-119 ==> healthy
|  |  |  |  |  |  |  |  |  |  |  |--- 120-125 ==> healthy
|  |  |  |  |  |  |  |  |  |  |  |--- 126+ ==> ???
|  |  |  |--- 31+ ==> healthy
|  |  |  |--- Unknown ==> healthy
|  |--- 31-40 
|  |  |  |--- gender_female 
|  |  |  |--- 0 ==> healthy
|  |  |  |--- 1 
|  |  |  |  |  |--- bmi 
|  |  |  |  |  |--- 0-18 ==> healthy
|  |  |  |  |  |--- 19-25 
|  |  |  |  |  |  |  |--- work_type_self_employed 
|  |  |  |  |  |  |  |--- 0 ==> healthy
|  |  |  |  |  |  |  |--- 1 
|  |  |  |  |  |  |  |  |  |--- ever_married_no 
|  |  |  |  |  |  |  |  |  |--- 0 ==> healthy
|  |  |  |  |  |  |  |  |  |--- 1 
|  |  |  |  |  |  |  |  |  |  |  |--- smoking_status_formerly_smoked 
|  |  |  |  |  |  |  |  |  |  |  |--- 0 ==> healthy
|  |  |  |  |  |  |  |  |  |  |  |--- 1 
|  |  |  |  |  |  |  |  |  |  |  |  |  |--- avg_glucose_level 
|  |  |  |  |  |  |  |  |  |  |  |  |  |--- 0-110 ==> sick
|  |  |  |  |  |  |  |  |  |  |  |  |  |--- 111-119 ==> ???
|  |  |  |  |  |  |  |  |  |  |  |  |  |--- 120-125 ==> ???
|  |  |  |  |  |  |  |  |  |  |  |  |  |--- 126+ ==> healthy
|  |  |  |  |  |--- 26-30 
|  |  |  |  |  |  |  |--- smoking_status_smokes 
|  |  |  |  |  |  |  |--- 0 
|  |  |  |  |  |  |  |  |  |--- residence_type_rural 
|  |  |  |  |  |  |  |  |  |--- 0 
|  |  |  |  |  |  |  |  |  |  |  |--- smoking_status_never_smoked 
|  |  |  |  |  |  |  |  |  |  |  |--- 0 ==> healthy
|  |  |  |  |  |  |  |  |  |  |  |--- 1 
|  |  |  |  |  |  |  |  |  |  |  |  |  |--- avg_glucose_level 
|  |  |  |  |  |  |  |  |  |  |  |  |  |--- 0-110 
|  |  |  |  |  |  |  |  |  |  |  |  |  |  |  |--- work_type_private 
|  |  |  |  |  |  |  |  |  |  |  |  |  |  |  |--- 0 ==> healthy
|  |  |  |  |  |  |  |  |  |  |  |  |  |  |  |--- 1 
|  |  |  |  |  |  |  |  |  |  |  |  |  |  |  |  |  |--- ever_married_no 
|  |  |  |  |  |  |  |  |  |  |  |  |  |  |  |  |  |--- 0 
|  |  |  |  |  |  |  |  |  |  |  |  |  |  |  |  |  |  |  |--- hypertension 
|  |  |  |  |  |  |  |  |  |  |  |  |  |  |  |  |  |  |  |--- 0 
|  |  |  |  |  |  |  |  |  |  |  |  |  |  |  |  |  |  |  |  |  |--- heart_disease 
|  |  |  |  |  |  |  |  |  |  |  |  |  |  |  |  |  |  |  |  |  |--- 0 
|  |  |  |  |  |  |  |  |  |  |  |  |  |  |  |  |  |  |  |  |  |  |  |--- gender_male 
|  |  |  |  |  |  |  |  |  |  |  |  |  |  |  |  |  |  |  |  |  |  |  |--- 0 
|  |  |  |  |  |  |  |  |  |  |  |  |  |  |  |  |  |  |  |  |  |  |  |  |  |--- gender_other 
|  |  |  |  |  |  |  |  |  |  |  |  |  |  |  |  |  |  |  |  |  |  |  |  |  |--- 0 
|  |  |  |  |  |  |  |  |  |  |  |  |  |  |  |  |  |  |  |  |  |  |  |  |  |  |  |--- ever_married_yes 
|  |  |  |  |  |  |  |  |  |  |  |  |  |  |  |  |  |  |  |  |  |  |  |  |  |  |  |--- 0 ==> ???
|  |  |  |  |  |  |  |  |  |  |  |  |  |  |  |  |  |  |  |  |  |  |  |  |  |  |  |--- 1 
|  |  |  |  |  |  |  |  |  |  |  |  |  |  |  |  |  |  |  |  |  |  |  |  |  |  |  |  |  |--- residence_type_urban 
|  |  |  |  |  |  |  |  |  |  |  |  |  |  |  |  |  |  |  |  |  |  |  |  |  |  |  |  |  |--- 0 ==> ???
|  |  |  |  |  |  |  |  |  |  |  |  |  |  |  |  |  |  |  |  |  |  |  |  |  |  |  |  |  |--- 1 
|  |  |  |  |  |  |  |  |  |  |  |  |  |  |  |  |  |  |  |  |  |  |  |  |  |  |  |  |  |  |  |--- smoking_status_unknown 
|  |  |  |  |  |  |  |  |  |  |  |  |  |  |  |  |  |  |  |  |  |  |  |  |  |  |  |  |  |  |  |--- 0 
|  |  |  |  |  |  |  |  |  |  |  |  |  |  |  |  |  |  |  |  |  |  |  |  |  |  |  |  |  |  |  |  |  |--- smoking_status_formerly_smoked 
|  |  |  |  |  |  |  |  |  |  |  |  |  |  |  |  |  |  |  |  |  |  |  |  |  |  |  |  |  |  |  |  |  |--- 0 
|  |  |  |  |  |  |  |  |  |  |  |  |  |  |  |  |  |  |  |  |  |  |  |  |  |  |  |  |  |  |  |  |  |  |  |--- work_type_govt_job 
|  |  |  |  |  |  |  |  |  |  |  |  |  |  |  |  |  |  |  |  |  |  |  |  |  |  |  |  |  |  |  |  |  |  |  |--- 0 
|  |  |  |  |  |  |  |  |  |  |  |  |  |  |  |  |  |  |  |  |  |  |  |  |  |  |  |  |  |  |  |  |  |  |  |  |  |--- work_type_never_worked 
|  |  |  |  |  |  |  |  |  |  |  |  |  |  |  |  |  |  |  |  |  |  |  |  |  |  |  |  |  |  |  |  |  |  |  |  |  |--- 0 
|  |  |  |  |  |  |  |  |  |  |  |  |  |  |  |  |  |  |  |  |  |  |  |  |  |  |  |  |  |  |  |  |  |  |  |  |  |  |  |--- work_type_self_employed 
|  |  |  |  |  |  |  |  |  |  |  |  |  |  |  |  |  |  |  |  |  |  |  |  |  |  |  |  |  |  |  |  |  |  |  |  |  |  |  |--- 0 
|  |  |  |  |  |  |  |  |  |  |  |  |  |  |  |  |  |  |  |  |  |  |  |  |  |  |  |  |  |  |  |  |  |  |  |  |  |  |  |  |  |--- work_type_children 
|  |  |  |  |  |  |  |  |  |  |  |  |  |  |  |  |  |  |  |  |  |  |  |  |  |  |  |  |  |  |  |  |  |  |  |  |  |  |  |  |  |--- 0 ==> [sick,healthy]
|  |  |  |  |  |  |  |  |  |  |  |  |  |  |  |  |  |  |  |  |  |  |  |  |  |  |  |  |  |  |  |  |  |  |  |  |  |  |  |  |  |--- 1 ==> ???
|  |  |  |  |  |  |  |  |  |  |  |  |  |  |  |  |  |  |  |  |  |  |  |  |  |  |  |  |  |  |  |  |  |  |  |  |  |  |  |--- 1 ==> ???
|  |  |  |  |  |  |  |  |  |  |  |  |  |  |  |  |  |  |  |  |  |  |  |  |  |  |  |  |  |  |  |  |  |  |  |  |  |--- 1 ==> ???
|  |  |  |  |  |  |  |  |  |  |  |  |  |  |  |  |  |  |  |  |  |  |  |  |  |  |  |  |  |  |  |  |  |  |  |--- 1 ==> ???
|  |  |  |  |  |  |  |  |  |  |  |  |  |  |  |  |  |  |  |  |  |  |  |  |  |  |  |  |  |  |  |  |  |--- 1 ==> ???
|  |  |  |  |  |  |  |  |  |  |  |  |  |  |  |  |  |  |  |  |  |  |  |  |  |  |  |  |  |  |  |--- 1 ==> ???
|  |  |  |  |  |  |  |  |  |  |  |  |  |  |  |  |  |  |  |  |  |  |  |  |  |--- 1 ==> ???
|  |  |  |  |  |  |  |  |  |  |  |  |  |  |  |  |  |  |  |  |  |  |  |--- 1 ==> ???
|  |  |  |  |  |  |  |  |  |  |  |  |  |  |  |  |  |  |  |  |  |--- 1 ==> ???
|  |  |  |  |  |  |  |  |  |  |  |  |  |  |  |  |  |  |  |--- 1 ==> ???
|  |  |  |  |  |  |  |  |  |  |  |  |  |  |  |  |  |--- 1 ==> healthy
|  |  |  |  |  |  |  |  |  |  |  |  |  |--- 111-119 ==> healthy
|  |  |  |  |  |  |  |  |  |  |  |  |  |--- 120-125 ==> healthy
|  |  |  |  |  |  |  |  |  |  |  |  |  |--- 126+ ==> healthy
|  |  |  |  |  |  |  |  |  |--- 1 ==> healthy
|  |  |  |  |  |  |  |--- 1 
|  |  |  |  |  |  |  |  |  |--- residence_type_rural 
|  |  |  |  |  |  |  |  |  |--- 0 ==> healthy
|  |  |  |  |  |  |  |  |  |--- 1 
|  |  |  |  |  |  |  |  |  |  |  |--- avg_glucose_level 
|  |  |  |  |  |  |  |  |  |  |  |--- 0-110 
|  |  |  |  |  |  |  |  |  |  |  |  |  |--- ever_married_no 
|  |  |  |  |  |  |  |  |  |  |  |  |  |--- 0 
|  |  |  |  |  |  |  |  |  |  |  |  |  |  |  |--- hypertension 
|  |  |  |  |  |  |  |  |  |  |  |  |  |  |  |--- 0 
|  |  |  |  |  |  |  |  |  |  |  |  |  |  |  |  |  |--- heart_disease 
|  |  |  |  |  |  |  |  |  |  |  |  |  |  |  |  |  |--- 0 
|  |  |  |  |  |  |  |  |  |  |  |  |  |  |  |  |  |  |  |--- gender_male 
|  |  |  |  |  |  |  |  |  |  |  |  |  |  |  |  |  |  |  |--- 0 
|  |  |  |  |  |  |  |  |  |  |  |  |  |  |  |  |  |  |  |  |  |--- gender_other 
|  |  |  |  |  |  |  |  |  |  |  |  |  |  |  |  |  |  |  |  |  |--- 0 
|  |  |  |  |  |  |  |  |  |  |  |  |  |  |  |  |  |  |  |  |  |  |  |--- ever_married_yes 
|  |  |  |  |  |  |  |  |  |  |  |  |  |  |  |  |  |  |  |  |  |  |  |--- 0 ==> ???
|  |  |  |  |  |  |  |  |  |  |  |  |  |  |  |  |  |  |  |  |  |  |  |--- 1 
|  |  |  |  |  |  |  |  |  |  |  |  |  |  |  |  |  |  |  |  |  |  |  |  |  |--- residence_type_urban 
|  |  |  |  |  |  |  |  |  |  |  |  |  |  |  |  |  |  |  |  |  |  |  |  |  |--- 0 
|  |  |  |  |  |  |  |  |  |  |  |  |  |  |  |  |  |  |  |  |  |  |  |  |  |  |  |--- smoking_status_unknown 
|  |  |  |  |  |  |  |  |  |  |  |  |  |  |  |  |  |  |  |  |  |  |  |  |  |  |  |--- 0 
|  |  |  |  |  |  |  |  |  |  |  |  |  |  |  |  |  |  |  |  |  |  |  |  |  |  |  |  |  |--- smoking_status_formerly_smoked 
|  |  |  |  |  |  |  |  |  |  |  |  |  |  |  |  |  |  |  |  |  |  |  |  |  |  |  |  |  |--- 0 
|  |  |  |  |  |  |  |  |  |  |  |  |  |  |  |  |  |  |  |  |  |  |  |  |  |  |  |  |  |  |  |--- smoking_status_never_smoked 
|  |  |  |  |  |  |  |  |  |  |  |  |  |  |  |  |  |  |  |  |  |  |  |  |  |  |  |  |  |  |  |--- 0 
|  |  |  |  |  |  |  |  |  |  |  |  |  |  |  |  |  |  |  |  |  |  |  |  |  |  |  |  |  |  |  |  |  |--- work_type_govt_job 
|  |  |  |  |  |  |  |  |  |  |  |  |  |  |  |  |  |  |  |  |  |  |  |  |  |  |  |  |  |  |  |  |  |--- 0 
|  |  |  |  |  |  |  |  |  |  |  |  |  |  |  |  |  |  |  |  |  |  |  |  |  |  |  |  |  |  |  |  |  |  |  |--- work_type_never_worked 
|  |  |  |  |  |  |  |  |  |  |  |  |  |  |  |  |  |  |  |  |  |  |  |  |  |  |  |  |  |  |  |  |  |  |  |--- 0 
|  |  |  |  |  |  |  |  |  |  |  |  |  |  |  |  |  |  |  |  |  |  |  |  |  |  |  |  |  |  |  |  |  |  |  |  |  |--- work_type_private 
|  |  |  |  |  |  |  |  |  |  |  |  |  |  |  |  |  |  |  |  |  |  |  |  |  |  |  |  |  |  |  |  |  |  |  |  |  |--- 0 ==> ???
|  |  |  |  |  |  |  |  |  |  |  |  |  |  |  |  |  |  |  |  |  |  |  |  |  |  |  |  |  |  |  |  |  |  |  |  |  |--- 1 
|  |  |  |  |  |  |  |  |  |  |  |  |  |  |  |  |  |  |  |  |  |  |  |  |  |  |  |  |  |  |  |  |  |  |  |  |  |  |  |--- work_type_self_employed 
|  |  |  |  |  |  |  |  |  |  |  |  |  |  |  |  |  |  |  |  |  |  |  |  |  |  |  |  |  |  |  |  |  |  |  |  |  |  |  |--- 0 
|  |  |  |  |  |  |  |  |  |  |  |  |  |  |  |  |  |  |  |  |  |  |  |  |  |  |  |  |  |  |  |  |  |  |  |  |  |  |  |  |  |--- work_type_children 
|  |  |  |  |  |  |  |  |  |  |  |  |  |  |  |  |  |  |  |  |  |  |  |  |  |  |  |  |  |  |  |  |  |  |  |  |  |  |  |  |  |--- 0 ==> [sick,healthy]
|  |  |  |  |  |  |  |  |  |  |  |  |  |  |  |  |  |  |  |  |  |  |  |  |  |  |  |  |  |  |  |  |  |  |  |  |  |  |  |  |  |--- 1 ==> ???
|  |  |  |  |  |  |  |  |  |  |  |  |  |  |  |  |  |  |  |  |  |  |  |  |  |  |  |  |  |  |  |  |  |  |  |  |  |  |  |--- 1 ==> ???
|  |  |  |  |  |  |  |  |  |  |  |  |  |  |  |  |  |  |  |  |  |  |  |  |  |  |  |  |  |  |  |  |  |  |  |--- 1 ==> ???
|  |  |  |  |  |  |  |  |  |  |  |  |  |  |  |  |  |  |  |  |  |  |  |  |  |  |  |  |  |  |  |  |  |--- 1 ==> ???
|  |  |  |  |  |  |  |  |  |  |  |  |  |  |  |  |  |  |  |  |  |  |  |  |  |  |  |  |  |  |  |--- 1 ==> ???
|  |  |  |  |  |  |  |  |  |  |  |  |  |  |  |  |  |  |  |  |  |  |  |  |  |  |  |  |  |--- 1 ==> ???
|  |  |  |  |  |  |  |  |  |  |  |  |  |  |  |  |  |  |  |  |  |  |  |  |  |  |  |--- 1 ==> ???
|  |  |  |  |  |  |  |  |  |  |  |  |  |  |  |  |  |  |  |  |  |  |  |  |  |--- 1 ==> ???
|  |  |  |  |  |  |  |  |  |  |  |  |  |  |  |  |  |  |  |  |  |--- 1 ==> ???
|  |  |  |  |  |  |  |  |  |  |  |  |  |  |  |  |  |  |  |--- 1 ==> ???
|  |  |  |  |  |  |  |  |  |  |  |  |  |  |  |  |  |--- 1 ==> ???
|  |  |  |  |  |  |  |  |  |  |  |  |  |  |  |--- 1 ==> ???
|  |  |  |  |  |  |  |  |  |  |  |  |  |--- 1 ==> healthy
|  |  |  |  |  |  |  |  |  |  |  |--- 111-119 ==> healthy
|  |  |  |  |  |  |  |  |  |  |  |--- 120-125 ==> ???
|  |  |  |  |  |  |  |  |  |  |  |--- 126+ ==> healthy
|  |  |  |  |  |--- 31+ 
|  |  |  |  |  |  |  |--- hypertension 
|  |  |  |  |  |  |  |--- 0 ==> healthy
|  |  |  |  |  |  |  |--- 1 
|  |  |  |  |  |  |  |  |  |--- smoking_status_never_smoked 
|  |  |  |  |  |  |  |  |  |--- 0 
|  |  |  |  |  |  |  |  |  |  |  |--- residence_type_rural 
|  |  |  |  |  |  |  |  |  |  |  |--- 0 ==> healthy
|  |  |  |  |  |  |  |  |  |  |  |--- 1 ==> sick
|  |  |  |  |  |  |  |  |  |--- 1 ==> healthy
|  |  |  |  |  |--- Unknown 
|  |  |  |  |  |  |  |--- smoking_status_formerly_smoked 
|  |  |  |  |  |  |  |--- 0 ==> healthy
|  |  |  |  |  |  |  |--- 1 
|  |  |  |  |  |  |  |  |  |--- residence_type_rural 
|  |  |  |  |  |  |  |  |  |--- 0 ==> healthy
|  |  |  |  |  |  |  |  |  |--- 1 ==> sick
|  |--- 41-50 
|  |  |  |--- bmi 
|  |  |  |--- 0-18 ==> healthy
|  |  |  |--- 19-25 
|  |  |  |  |  |--- work_type_private 
|  |  |  |  |  |--- 0 ==> healthy
|  |  |  |  |  |--- 1 
|  |  |  |  |  |  |  |--- avg_glucose_level 
|  |  |  |  |  |  |  |--- 0-110 
|  |  |  |  |  |  |  |  |  |--- smoking_status_smokes 
|  |  |  |  |  |  |  |  |  |--- 0 
|  |  |  |  |  |  |  |  |  |  |  |--- smoking_status_formerly_smoked 
|  |  |  |  |  |  |  |  |  |  |  |--- 0 
|  |  |  |  |  |  |  |  |  |  |  |  |  |--- gender_female 
|  |  |  |  |  |  |  |  |  |  |  |  |  |--- 0 
|  |  |  |  |  |  |  |  |  |  |  |  |  |  |  |--- residence_type_rural 
|  |  |  |  |  |  |  |  |  |  |  |  |  |  |  |--- 0 ==> healthy
|  |  |  |  |  |  |  |  |  |  |  |  |  |  |  |--- 1 
|  |  |  |  |  |  |  |  |  |  |  |  |  |  |  |  |  |--- smoking_status_unknown 
|  |  |  |  |  |  |  |  |  |  |  |  |  |  |  |  |  |--- 0 ==> healthy
|  |  |  |  |  |  |  |  |  |  |  |  |  |  |  |  |  |--- 1 
|  |  |  |  |  |  |  |  |  |  |  |  |  |  |  |  |  |  |  |--- hypertension 
|  |  |  |  |  |  |  |  |  |  |  |  |  |  |  |  |  |  |  |--- 0 
|  |  |  |  |  |  |  |  |  |  |  |  |  |  |  |  |  |  |  |  |  |--- heart_disease 
|  |  |  |  |  |  |  |  |  |  |  |  |  |  |  |  |  |  |  |  |  |--- 0 
|  |  |  |  |  |  |  |  |  |  |  |  |  |  |  |  |  |  |  |  |  |  |  |--- gender_male 
|  |  |  |  |  |  |  |  |  |  |  |  |  |  |  |  |  |  |  |  |  |  |  |--- 0 ==> ???
|  |  |  |  |  |  |  |  |  |  |  |  |  |  |  |  |  |  |  |  |  |  |  |--- 1 
|  |  |  |  |  |  |  |  |  |  |  |  |  |  |  |  |  |  |  |  |  |  |  |  |  |--- gender_other 
|  |  |  |  |  |  |  |  |  |  |  |  |  |  |  |  |  |  |  |  |  |  |  |  |  |--- 0 
|  |  |  |  |  |  |  |  |  |  |  |  |  |  |  |  |  |  |  |  |  |  |  |  |  |  |  |--- ever_married_no 
|  |  |  |  |  |  |  |  |  |  |  |  |  |  |  |  |  |  |  |  |  |  |  |  |  |  |  |--- 0 
|  |  |  |  |  |  |  |  |  |  |  |  |  |  |  |  |  |  |  |  |  |  |  |  |  |  |  |  |  |--- ever_married_yes 
|  |  |  |  |  |  |  |  |  |  |  |  |  |  |  |  |  |  |  |  |  |  |  |  |  |  |  |  |  |--- 0 ==> ???
|  |  |  |  |  |  |  |  |  |  |  |  |  |  |  |  |  |  |  |  |  |  |  |  |  |  |  |  |  |--- 1 
|  |  |  |  |  |  |  |  |  |  |  |  |  |  |  |  |  |  |  |  |  |  |  |  |  |  |  |  |  |  |  |--- residence_type_urban 
|  |  |  |  |  |  |  |  |  |  |  |  |  |  |  |  |  |  |  |  |  |  |  |  |  |  |  |  |  |  |  |--- 0 
|  |  |  |  |  |  |  |  |  |  |  |  |  |  |  |  |  |  |  |  |  |  |  |  |  |  |  |  |  |  |  |  |  |--- smoking_status_never_smoked 
|  |  |  |  |  |  |  |  |  |  |  |  |  |  |  |  |  |  |  |  |  |  |  |  |  |  |  |  |  |  |  |  |  |--- 0 
|  |  |  |  |  |  |  |  |  |  |  |  |  |  |  |  |  |  |  |  |  |  |  |  |  |  |  |  |  |  |  |  |  |  |  |--- work_type_govt_job 
|  |  |  |  |  |  |  |  |  |  |  |  |  |  |  |  |  |  |  |  |  |  |  |  |  |  |  |  |  |  |  |  |  |  |  |--- 0 
|  |  |  |  |  |  |  |  |  |  |  |  |  |  |  |  |  |  |  |  |  |  |  |  |  |  |  |  |  |  |  |  |  |  |  |  |  |--- work_type_never_worked 
|  |  |  |  |  |  |  |  |  |  |  |  |  |  |  |  |  |  |  |  |  |  |  |  |  |  |  |  |  |  |  |  |  |  |  |  |  |--- 0 
|  |  |  |  |  |  |  |  |  |  |  |  |  |  |  |  |  |  |  |  |  |  |  |  |  |  |  |  |  |  |  |  |  |  |  |  |  |  |  |--- work_type_self_employed 
|  |  |  |  |  |  |  |  |  |  |  |  |  |  |  |  |  |  |  |  |  |  |  |  |  |  |  |  |  |  |  |  |  |  |  |  |  |  |  |--- 0 
|  |  |  |  |  |  |  |  |  |  |  |  |  |  |  |  |  |  |  |  |  |  |  |  |  |  |  |  |  |  |  |  |  |  |  |  |  |  |  |  |  |--- work_type_children 
|  |  |  |  |  |  |  |  |  |  |  |  |  |  |  |  |  |  |  |  |  |  |  |  |  |  |  |  |  |  |  |  |  |  |  |  |  |  |  |  |  |--- 0 ==> [sick,healthy]
|  |  |  |  |  |  |  |  |  |  |  |  |  |  |  |  |  |  |  |  |  |  |  |  |  |  |  |  |  |  |  |  |  |  |  |  |  |  |  |  |  |--- 1 ==> ???
|  |  |  |  |  |  |  |  |  |  |  |  |  |  |  |  |  |  |  |  |  |  |  |  |  |  |  |  |  |  |  |  |  |  |  |  |  |  |  |--- 1 ==> ???
|  |  |  |  |  |  |  |  |  |  |  |  |  |  |  |  |  |  |  |  |  |  |  |  |  |  |  |  |  |  |  |  |  |  |  |  |  |--- 1 ==> ???
|  |  |  |  |  |  |  |  |  |  |  |  |  |  |  |  |  |  |  |  |  |  |  |  |  |  |  |  |  |  |  |  |  |  |  |--- 1 ==> ???
|  |  |  |  |  |  |  |  |  |  |  |  |  |  |  |  |  |  |  |  |  |  |  |  |  |  |  |  |  |  |  |  |  |--- 1 ==> ???
|  |  |  |  |  |  |  |  |  |  |  |  |  |  |  |  |  |  |  |  |  |  |  |  |  |  |  |  |  |  |  |--- 1 ==> ???
|  |  |  |  |  |  |  |  |  |  |  |  |  |  |  |  |  |  |  |  |  |  |  |  |  |  |  |--- 1 ==> ???
|  |  |  |  |  |  |  |  |  |  |  |  |  |  |  |  |  |  |  |  |  |  |  |  |  |--- 1 ==> ???
|  |  |  |  |  |  |  |  |  |  |  |  |  |  |  |  |  |  |  |  |  |--- 1 ==> ???
|  |  |  |  |  |  |  |  |  |  |  |  |  |  |  |  |  |  |  |--- 1 ==> ???
|  |  |  |  |  |  |  |  |  |  |  |  |  |--- 1 
|  |  |  |  |  |  |  |  |  |  |  |  |  |  |  |--- residence_type_rural 
|  |  |  |  |  |  |  |  |  |  |  |  |  |  |  |--- 0 
|  |  |  |  |  |  |  |  |  |  |  |  |  |  |  |  |  |--- smoking_status_unknown 
|  |  |  |  |  |  |  |  |  |  |  |  |  |  |  |  |  |--- 0 
|  |  |  |  |  |  |  |  |  |  |  |  |  |  |  |  |  |  |  |--- hypertension 
|  |  |  |  |  |  |  |  |  |  |  |  |  |  |  |  |  |  |  |--- 0 
|  |  |  |  |  |  |  |  |  |  |  |  |  |  |  |  |  |  |  |  |  |--- heart_disease 
|  |  |  |  |  |  |  |  |  |  |  |  |  |  |  |  |  |  |  |  |  |--- 0 
|  |  |  |  |  |  |  |  |  |  |  |  |  |  |  |  |  |  |  |  |  |  |  |--- gender_male 
|  |  |  |  |  |  |  |  |  |  |  |  |  |  |  |  |  |  |  |  |  |  |  |--- 0 
|  |  |  |  |  |  |  |  |  |  |  |  |  |  |  |  |  |  |  |  |  |  |  |  |  |--- gender_other 
|  |  |  |  |  |  |  |  |  |  |  |  |  |  |  |  |  |  |  |  |  |  |  |  |  |--- 0 
|  |  |  |  |  |  |  |  |  |  |  |  |  |  |  |  |  |  |  |  |  |  |  |  |  |  |  |--- ever_married_no 
|  |  |  |  |  |  |  |  |  |  |  |  |  |  |  |  |  |  |  |  |  |  |  |  |  |  |  |--- 0 
|  |  |  |  |  |  |  |  |  |  |  |  |  |  |  |  |  |  |  |  |  |  |  |  |  |  |  |  |  |--- ever_married_yes 
|  |  |  |  |  |  |  |  |  |  |  |  |  |  |  |  |  |  |  |  |  |  |  |  |  |  |  |  |  |--- 0 ==> ???
|  |  |  |  |  |  |  |  |  |  |  |  |  |  |  |  |  |  |  |  |  |  |  |  |  |  |  |  |  |--- 1 
|  |  |  |  |  |  |  |  |  |  |  |  |  |  |  |  |  |  |  |  |  |  |  |  |  |  |  |  |  |  |  |--- residence_type_urban 
|  |  |  |  |  |  |  |  |  |  |  |  |  |  |  |  |  |  |  |  |  |  |  |  |  |  |  |  |  |  |  |--- 0 ==> ???
|  |  |  |  |  |  |  |  |  |  |  |  |  |  |  |  |  |  |  |  |  |  |  |  |  |  |  |  |  |  |  |--- 1 
|  |  |  |  |  |  |  |  |  |  |  |  |  |  |  |  |  |  |  |  |  |  |  |  |  |  |  |  |  |  |  |  |  |--- smoking_status_never_smoked 
|  |  |  |  |  |  |  |  |  |  |  |  |  |  |  |  |  |  |  |  |  |  |  |  |  |  |  |  |  |  |  |  |  |--- 0 ==> ???
|  |  |  |  |  |  |  |  |  |  |  |  |  |  |  |  |  |  |  |  |  |  |  |  |  |  |  |  |  |  |  |  |  |--- 1 
|  |  |  |  |  |  |  |  |  |  |  |  |  |  |  |  |  |  |  |  |  |  |  |  |  |  |  |  |  |  |  |  |  |  |  |--- work_type_govt_job 
|  |  |  |  |  |  |  |  |  |  |  |  |  |  |  |  |  |  |  |  |  |  |  |  |  |  |  |  |  |  |  |  |  |  |  |--- 0 
|  |  |  |  |  |  |  |  |  |  |  |  |  |  |  |  |  |  |  |  |  |  |  |  |  |  |  |  |  |  |  |  |  |  |  |  |  |--- work_type_never_worked 
|  |  |  |  |  |  |  |  |  |  |  |  |  |  |  |  |  |  |  |  |  |  |  |  |  |  |  |  |  |  |  |  |  |  |  |  |  |--- 0 
|  |  |  |  |  |  |  |  |  |  |  |  |  |  |  |  |  |  |  |  |  |  |  |  |  |  |  |  |  |  |  |  |  |  |  |  |  |  |  |--- work_type_self_employed 
|  |  |  |  |  |  |  |  |  |  |  |  |  |  |  |  |  |  |  |  |  |  |  |  |  |  |  |  |  |  |  |  |  |  |  |  |  |  |  |--- 0 
|  |  |  |  |  |  |  |  |  |  |  |  |  |  |  |  |  |  |  |  |  |  |  |  |  |  |  |  |  |  |  |  |  |  |  |  |  |  |  |  |  |--- work_type_children 
|  |  |  |  |  |  |  |  |  |  |  |  |  |  |  |  |  |  |  |  |  |  |  |  |  |  |  |  |  |  |  |  |  |  |  |  |  |  |  |  |  |--- 0 ==> [sick,healthy]
|  |  |  |  |  |  |  |  |  |  |  |  |  |  |  |  |  |  |  |  |  |  |  |  |  |  |  |  |  |  |  |  |  |  |  |  |  |  |  |  |  |--- 1 ==> ???
|  |  |  |  |  |  |  |  |  |  |  |  |  |  |  |  |  |  |  |  |  |  |  |  |  |  |  |  |  |  |  |  |  |  |  |  |  |  |  |--- 1 ==> ???
|  |  |  |  |  |  |  |  |  |  |  |  |  |  |  |  |  |  |  |  |  |  |  |  |  |  |  |  |  |  |  |  |  |  |  |  |  |--- 1 ==> ???
|  |  |  |  |  |  |  |  |  |  |  |  |  |  |  |  |  |  |  |  |  |  |  |  |  |  |  |  |  |  |  |  |  |  |  |--- 1 ==> ???
|  |  |  |  |  |  |  |  |  |  |  |  |  |  |  |  |  |  |  |  |  |  |  |  |  |  |  |--- 1 ==> ???
|  |  |  |  |  |  |  |  |  |  |  |  |  |  |  |  |  |  |  |  |  |  |  |  |  |--- 1 ==> ???
|  |  |  |  |  |  |  |  |  |  |  |  |  |  |  |  |  |  |  |  |  |  |  |--- 1 ==> ???
|  |  |  |  |  |  |  |  |  |  |  |  |  |  |  |  |  |  |  |  |  |--- 1 ==> ???
|  |  |  |  |  |  |  |  |  |  |  |  |  |  |  |  |  |  |  |--- 1 ==> ???
|  |  |  |  |  |  |  |  |  |  |  |  |  |  |  |  |  |--- 1 ==> healthy
|  |  |  |  |  |  |  |  |  |  |  |  |  |  |  |--- 1 ==> healthy
|  |  |  |  |  |  |  |  |  |  |  |--- 1 ==> healthy
|  |  |  |  |  |  |  |  |  |--- 1 ==> healthy
|  |  |  |  |  |  |  |--- 111-119 ==> healthy
|  |  |  |  |  |  |  |--- 120-125 ==> healthy
|  |  |  |  |  |  |  |--- 126+ ==> healthy
|  |  |  |--- 26-30 
|  |  |  |  |  |--- hypertension 
|  |  |  |  |  |--- 0 
|  |  |  |  |  |  |  |--- smoking_status_smokes 
|  |  |  |  |  |  |  |--- 0 
|  |  |  |  |  |  |  |  |  |--- smoking_status_unknown 
|  |  |  |  |  |  |  |  |  |--- 0 
|  |  |  |  |  |  |  |  |  |  |  |--- work_type_self_employed 
|  |  |  |  |  |  |  |  |  |  |  |--- 0 
|  |  |  |  |  |  |  |  |  |  |  |  |  |--- avg_glucose_level 
|  |  |  |  |  |  |  |  |  |  |  |  |  |--- 0-110 
|  |  |  |  |  |  |  |  |  |  |  |  |  |  |  |--- gender_female 
|  |  |  |  |  |  |  |  |  |  |  |  |  |  |  |--- 0 
|  |  |  |  |  |  |  |  |  |  |  |  |  |  |  |  |  |--- ever_married_no 
|  |  |  |  |  |  |  |  |  |  |  |  |  |  |  |  |  |--- 0 
|  |  |  |  |  |  |  |  |  |  |  |  |  |  |  |  |  |  |  |--- work_type_govt_job 
|  |  |  |  |  |  |  |  |  |  |  |  |  |  |  |  |  |  |  |--- 0 
|  |  |  |  |  |  |  |  |  |  |  |  |  |  |  |  |  |  |  |  |  |--- residence_type_rural 
|  |  |  |  |  |  |  |  |  |  |  |  |  |  |  |  |  |  |  |  |  |--- 0 ==> healthy
|  |  |  |  |  |  |  |  |  |  |  |  |  |  |  |  |  |  |  |  |  |--- 1 
|  |  |  |  |  |  |  |  |  |  |  |  |  |  |  |  |  |  |  |  |  |  |  |--- smoking_status_formerly_smoked 
|  |  |  |  |  |  |  |  |  |  |  |  |  |  |  |  |  |  |  |  |  |  |  |--- 0 
|  |  |  |  |  |  |  |  |  |  |  |  |  |  |  |  |  |  |  |  |  |  |  |  |  |--- heart_disease 
|  |  |  |  |  |  |  |  |  |  |  |  |  |  |  |  |  |  |  |  |  |  |  |  |  |--- 0 
|  |  |  |  |  |  |  |  |  |  |  |  |  |  |  |  |  |  |  |  |  |  |  |  |  |  |  |--- gender_male 
|  |  |  |  |  |  |  |  |  |  |  |  |  |  |  |  |  |  |  |  |  |  |  |  |  |  |  |--- 0 ==> ???
|  |  |  |  |  |  |  |  |  |  |  |  |  |  |  |  |  |  |  |  |  |  |  |  |  |  |  |--- 1 
|  |  |  |  |  |  |  |  |  |  |  |  |  |  |  |  |  |  |  |  |  |  |  |  |  |  |  |  |  |--- gender_other 
|  |  |  |  |  |  |  |  |  |  |  |  |  |  |  |  |  |  |  |  |  |  |  |  |  |  |  |  |  |--- 0 
|  |  |  |  |  |  |  |  |  |  |  |  |  |  |  |  |  |  |  |  |  |  |  |  |  |  |  |  |  |  |  |--- ever_married_yes 
|  |  |  |  |  |  |  |  |  |  |  |  |  |  |  |  |  |  |  |  |  |  |  |  |  |  |  |  |  |  |  |--- 0 ==> ???
|  |  |  |  |  |  |  |  |  |  |  |  |  |  |  |  |  |  |  |  |  |  |  |  |  |  |  |  |  |  |  |--- 1 
|  |  |  |  |  |  |  |  |  |  |  |  |  |  |  |  |  |  |  |  |  |  |  |  |  |  |  |  |  |  |  |  |  |--- residence_type_urban 
|  |  |  |  |  |  |  |  |  |  |  |  |  |  |  |  |  |  |  |  |  |  |  |  |  |  |  |  |  |  |  |  |  |--- 0 
|  |  |  |  |  |  |  |  |  |  |  |  |  |  |  |  |  |  |  |  |  |  |  |  |  |  |  |  |  |  |  |  |  |  |  |--- smoking_status_never_smoked 
|  |  |  |  |  |  |  |  |  |  |  |  |  |  |  |  |  |  |  |  |  |  |  |  |  |  |  |  |  |  |  |  |  |  |  |--- 0 ==> ???
|  |  |  |  |  |  |  |  |  |  |  |  |  |  |  |  |  |  |  |  |  |  |  |  |  |  |  |  |  |  |  |  |  |  |  |--- 1 
|  |  |  |  |  |  |  |  |  |  |  |  |  |  |  |  |  |  |  |  |  |  |  |  |  |  |  |  |  |  |  |  |  |  |  |  |  |--- work_type_never_worked 
|  |  |  |  |  |  |  |  |  |  |  |  |  |  |  |  |  |  |  |  |  |  |  |  |  |  |  |  |  |  |  |  |  |  |  |  |  |--- 0 
|  |  |  |  |  |  |  |  |  |  |  |  |  |  |  |  |  |  |  |  |  |  |  |  |  |  |  |  |  |  |  |  |  |  |  |  |  |  |  |--- work_type_private 
|  |  |  |  |  |  |  |  |  |  |  |  |  |  |  |  |  |  |  |  |  |  |  |  |  |  |  |  |  |  |  |  |  |  |  |  |  |  |  |--- 0 ==> ???
|  |  |  |  |  |  |  |  |  |  |  |  |  |  |  |  |  |  |  |  |  |  |  |  |  |  |  |  |  |  |  |  |  |  |  |  |  |  |  |--- 1 
|  |  |  |  |  |  |  |  |  |  |  |  |  |  |  |  |  |  |  |  |  |  |  |  |  |  |  |  |  |  |  |  |  |  |  |  |  |  |  |  |  |--- work_type_children 
|  |  |  |  |  |  |  |  |  |  |  |  |  |  |  |  |  |  |  |  |  |  |  |  |  |  |  |  |  |  |  |  |  |  |  |  |  |  |  |  |  |--- 0 ==> [sick,healthy]
|  |  |  |  |  |  |  |  |  |  |  |  |  |  |  |  |  |  |  |  |  |  |  |  |  |  |  |  |  |  |  |  |  |  |  |  |  |  |  |  |  |--- 1 ==> ???
|  |  |  |  |  |  |  |  |  |  |  |  |  |  |  |  |  |  |  |  |  |  |  |  |  |  |  |  |  |  |  |  |  |  |  |  |  |--- 1 ==> ???
|  |  |  |  |  |  |  |  |  |  |  |  |  |  |  |  |  |  |  |  |  |  |  |  |  |  |  |  |  |  |  |  |  |--- 1 ==> ???
|  |  |  |  |  |  |  |  |  |  |  |  |  |  |  |  |  |  |  |  |  |  |  |  |  |  |  |  |  |--- 1 ==> ???
|  |  |  |  |  |  |  |  |  |  |  |  |  |  |  |  |  |  |  |  |  |  |  |  |  |--- 1 ==> ???
|  |  |  |  |  |  |  |  |  |  |  |  |  |  |  |  |  |  |  |  |  |  |  |--- 1 ==> healthy
|  |  |  |  |  |  |  |  |  |  |  |  |  |  |  |  |  |  |  |--- 1 ==> healthy
|  |  |  |  |  |  |  |  |  |  |  |  |  |  |  |  |  |--- 1 
|  |  |  |  |  |  |  |  |  |  |  |  |  |  |  |  |  |  |  |--- residence_type_rural 
|  |  |  |  |  |  |  |  |  |  |  |  |  |  |  |  |  |  |  |--- 0 
|  |  |  |  |  |  |  |  |  |  |  |  |  |  |  |  |  |  |  |  |  |--- heart_disease 
|  |  |  |  |  |  |  |  |  |  |  |  |  |  |  |  |  |  |  |  |  |--- 0 
|  |  |  |  |  |  |  |  |  |  |  |  |  |  |  |  |  |  |  |  |  |  |  |--- gender_male 
|  |  |  |  |  |  |  |  |  |  |  |  |  |  |  |  |  |  |  |  |  |  |  |--- 0 ==> ???
|  |  |  |  |  |  |  |  |  |  |  |  |  |  |  |  |  |  |  |  |  |  |  |--- 1 
|  |  |  |  |  |  |  |  |  |  |  |  |  |  |  |  |  |  |  |  |  |  |  |  |  |--- gender_other 
|  |  |  |  |  |  |  |  |  |  |  |  |  |  |  |  |  |  |  |  |  |  |  |  |  |--- 0 
|  |  |  |  |  |  |  |  |  |  |  |  |  |  |  |  |  |  |  |  |  |  |  |  |  |  |  |--- ever_married_yes 
|  |  |  |  |  |  |  |  |  |  |  |  |  |  |  |  |  |  |  |  |  |  |  |  |  |  |  |--- 0 
|  |  |  |  |  |  |  |  |  |  |  |  |  |  |  |  |  |  |  |  |  |  |  |  |  |  |  |  |  |--- residence_type_urban 
|  |  |  |  |  |  |  |  |  |  |  |  |  |  |  |  |  |  |  |  |  |  |  |  |  |  |  |  |  |--- 0 ==> ???
|  |  |  |  |  |  |  |  |  |  |  |  |  |  |  |  |  |  |  |  |  |  |  |  |  |  |  |  |  |--- 1 
|  |  |  |  |  |  |  |  |  |  |  |  |  |  |  |  |  |  |  |  |  |  |  |  |  |  |  |  |  |  |  |--- smoking_status_formerly_smoked 
|  |  |  |  |  |  |  |  |  |  |  |  |  |  |  |  |  |  |  |  |  |  |  |  |  |  |  |  |  |  |  |--- 0 
|  |  |  |  |  |  |  |  |  |  |  |  |  |  |  |  |  |  |  |  |  |  |  |  |  |  |  |  |  |  |  |  |  |--- smoking_status_never_smoked 
|  |  |  |  |  |  |  |  |  |  |  |  |  |  |  |  |  |  |  |  |  |  |  |  |  |  |  |  |  |  |  |  |  |--- 0 ==> ???
|  |  |  |  |  |  |  |  |  |  |  |  |  |  |  |  |  |  |  |  |  |  |  |  |  |  |  |  |  |  |  |  |  |--- 1 
|  |  |  |  |  |  |  |  |  |  |  |  |  |  |  |  |  |  |  |  |  |  |  |  |  |  |  |  |  |  |  |  |  |  |  |--- work_type_govt_job 
|  |  |  |  |  |  |  |  |  |  |  |  |  |  |  |  |  |  |  |  |  |  |  |  |  |  |  |  |  |  |  |  |  |  |  |--- 0 ==> ???
|  |  |  |  |  |  |  |  |  |  |  |  |  |  |  |  |  |  |  |  |  |  |  |  |  |  |  |  |  |  |  |  |  |  |  |--- 1 
|  |  |  |  |  |  |  |  |  |  |  |  |  |  |  |  |  |  |  |  |  |  |  |  |  |  |  |  |  |  |  |  |  |  |  |  |  |--- work_type_never_worked 
|  |  |  |  |  |  |  |  |  |  |  |  |  |  |  |  |  |  |  |  |  |  |  |  |  |  |  |  |  |  |  |  |  |  |  |  |  |--- 0 
|  |  |  |  |  |  |  |  |  |  |  |  |  |  |  |  |  |  |  |  |  |  |  |  |  |  |  |  |  |  |  |  |  |  |  |  |  |  |  |--- work_type_private 
|  |  |  |  |  |  |  |  |  |  |  |  |  |  |  |  |  |  |  |  |  |  |  |  |  |  |  |  |  |  |  |  |  |  |  |  |  |  |  |--- 0 
|  |  |  |  |  |  |  |  |  |  |  |  |  |  |  |  |  |  |  |  |  |  |  |  |  |  |  |  |  |  |  |  |  |  |  |  |  |  |  |  |  |--- work_type_children 
|  |  |  |  |  |  |  |  |  |  |  |  |  |  |  |  |  |  |  |  |  |  |  |  |  |  |  |  |  |  |  |  |  |  |  |  |  |  |  |  |  |--- 0 ==> [sick,healthy]
|  |  |  |  |  |  |  |  |  |  |  |  |  |  |  |  |  |  |  |  |  |  |  |  |  |  |  |  |  |  |  |  |  |  |  |  |  |  |  |  |  |--- 1 ==> ???
|  |  |  |  |  |  |  |  |  |  |  |  |  |  |  |  |  |  |  |  |  |  |  |  |  |  |  |  |  |  |  |  |  |  |  |  |  |  |  |--- 1 ==> ???
|  |  |  |  |  |  |  |  |  |  |  |  |  |  |  |  |  |  |  |  |  |  |  |  |  |  |  |  |  |  |  |  |  |  |  |  |  |--- 1 ==> ???
|  |  |  |  |  |  |  |  |  |  |  |  |  |  |  |  |  |  |  |  |  |  |  |  |  |  |  |  |  |  |  |--- 1 ==> ???
|  |  |  |  |  |  |  |  |  |  |  |  |  |  |  |  |  |  |  |  |  |  |  |  |  |  |  |--- 1 ==> ???
|  |  |  |  |  |  |  |  |  |  |  |  |  |  |  |  |  |  |  |  |  |  |  |  |  |--- 1 ==> ???
|  |  |  |  |  |  |  |  |  |  |  |  |  |  |  |  |  |  |  |  |  |--- 1 ==> ???
|  |  |  |  |  |  |  |  |  |  |  |  |  |  |  |  |  |  |  |--- 1 ==> healthy
|  |  |  |  |  |  |  |  |  |  |  |  |  |  |  |--- 1 
|  |  |  |  |  |  |  |  |  |  |  |  |  |  |  |  |  |--- work_type_govt_job 
|  |  |  |  |  |  |  |  |  |  |  |  |  |  |  |  |  |--- 0 
|  |  |  |  |  |  |  |  |  |  |  |  |  |  |  |  |  |  |  |--- smoking_status_formerly_smoked 
|  |  |  |  |  |  |  |  |  |  |  |  |  |  |  |  |  |  |  |--- 0 
|  |  |  |  |  |  |  |  |  |  |  |  |  |  |  |  |  |  |  |  |  |--- residence_type_rural 
|  |  |  |  |  |  |  |  |  |  |  |  |  |  |  |  |  |  |  |  |  |--- 0 
|  |  |  |  |  |  |  |  |  |  |  |  |  |  |  |  |  |  |  |  |  |  |  |--- ever_married_no 
|  |  |  |  |  |  |  |  |  |  |  |  |  |  |  |  |  |  |  |  |  |  |  |--- 0 
|  |  |  |  |  |  |  |  |  |  |  |  |  |  |  |  |  |  |  |  |  |  |  |  |  |--- heart_disease 
|  |  |  |  |  |  |  |  |  |  |  |  |  |  |  |  |  |  |  |  |  |  |  |  |  |--- 0 
|  |  |  |  |  |  |  |  |  |  |  |  |  |  |  |  |  |  |  |  |  |  |  |  |  |  |  |--- gender_male 
|  |  |  |  |  |  |  |  |  |  |  |  |  |  |  |  |  |  |  |  |  |  |  |  |  |  |  |--- 0 
|  |  |  |  |  |  |  |  |  |  |  |  |  |  |  |  |  |  |  |  |  |  |  |  |  |  |  |  |  |--- gender_other 
|  |  |  |  |  |  |  |  |  |  |  |  |  |  |  |  |  |  |  |  |  |  |  |  |  |  |  |  |  |--- 0 
|  |  |  |  |  |  |  |  |  |  |  |  |  |  |  |  |  |  |  |  |  |  |  |  |  |  |  |  |  |  |  |--- ever_married_yes 
|  |  |  |  |  |  |  |  |  |  |  |  |  |  |  |  |  |  |  |  |  |  |  |  |  |  |  |  |  |  |  |--- 0 ==> ???
|  |  |  |  |  |  |  |  |  |  |  |  |  |  |  |  |  |  |  |  |  |  |  |  |  |  |  |  |  |  |  |--- 1 
|  |  |  |  |  |  |  |  |  |  |  |  |  |  |  |  |  |  |  |  |  |  |  |  |  |  |  |  |  |  |  |  |  |--- residence_type_urban 
|  |  |  |  |  |  |  |  |  |  |  |  |  |  |  |  |  |  |  |  |  |  |  |  |  |  |  |  |  |  |  |  |  |--- 0 ==> ???
|  |  |  |  |  |  |  |  |  |  |  |  |  |  |  |  |  |  |  |  |  |  |  |  |  |  |  |  |  |  |  |  |  |--- 1 
|  |  |  |  |  |  |  |  |  |  |  |  |  |  |  |  |  |  |  |  |  |  |  |  |  |  |  |  |  |  |  |  |  |  |  |--- smoking_status_never_smoked 
|  |  |  |  |  |  |  |  |  |  |  |  |  |  |  |  |  |  |  |  |  |  |  |  |  |  |  |  |  |  |  |  |  |  |  |--- 0 ==> ???
|  |  |  |  |  |  |  |  |  |  |  |  |  |  |  |  |  |  |  |  |  |  |  |  |  |  |  |  |  |  |  |  |  |  |  |--- 1 
|  |  |  |  |  |  |  |  |  |  |  |  |  |  |  |  |  |  |  |  |  |  |  |  |  |  |  |  |  |  |  |  |  |  |  |  |  |--- work_type_never_worked 
|  |  |  |  |  |  |  |  |  |  |  |  |  |  |  |  |  |  |  |  |  |  |  |  |  |  |  |  |  |  |  |  |  |  |  |  |  |--- 0 
|  |  |  |  |  |  |  |  |  |  |  |  |  |  |  |  |  |  |  |  |  |  |  |  |  |  |  |  |  |  |  |  |  |  |  |  |  |  |  |--- work_type_private 
|  |  |  |  |  |  |  |  |  |  |  |  |  |  |  |  |  |  |  |  |  |  |  |  |  |  |  |  |  |  |  |  |  |  |  |  |  |  |  |--- 0 ==> ???
|  |  |  |  |  |  |  |  |  |  |  |  |  |  |  |  |  |  |  |  |  |  |  |  |  |  |  |  |  |  |  |  |  |  |  |  |  |  |  |--- 1 
|  |  |  |  |  |  |  |  |  |  |  |  |  |  |  |  |  |  |  |  |  |  |  |  |  |  |  |  |  |  |  |  |  |  |  |  |  |  |  |  |  |--- work_type_children 
|  |  |  |  |  |  |  |  |  |  |  |  |  |  |  |  |  |  |  |  |  |  |  |  |  |  |  |  |  |  |  |  |  |  |  |  |  |  |  |  |  |--- 0 ==> [sick,healthy]
|  |  |  |  |  |  |  |  |  |  |  |  |  |  |  |  |  |  |  |  |  |  |  |  |  |  |  |  |  |  |  |  |  |  |  |  |  |  |  |  |  |--- 1 ==> ???
|  |  |  |  |  |  |  |  |  |  |  |  |  |  |  |  |  |  |  |  |  |  |  |  |  |  |  |  |  |  |  |  |  |  |  |  |  |--- 1 ==> ???
|  |  |  |  |  |  |  |  |  |  |  |  |  |  |  |  |  |  |  |  |  |  |  |  |  |  |  |  |  |--- 1 ==> ???
|  |  |  |  |  |  |  |  |  |  |  |  |  |  |  |  |  |  |  |  |  |  |  |  |  |  |  |--- 1 ==> ???
|  |  |  |  |  |  |  |  |  |  |  |  |  |  |  |  |  |  |  |  |  |  |  |  |  |--- 1 ==> ???
|  |  |  |  |  |  |  |  |  |  |  |  |  |  |  |  |  |  |  |  |  |  |  |--- 1 ==> healthy
|  |  |  |  |  |  |  |  |  |  |  |  |  |  |  |  |  |  |  |  |  |--- 1 ==> healthy
|  |  |  |  |  |  |  |  |  |  |  |  |  |  |  |  |  |  |  |--- 1 
|  |  |  |  |  |  |  |  |  |  |  |  |  |  |  |  |  |  |  |  |  |--- residence_type_rural 
|  |  |  |  |  |  |  |  |  |  |  |  |  |  |  |  |  |  |  |  |  |--- 0 ==> healthy
|  |  |  |  |  |  |  |  |  |  |  |  |  |  |  |  |  |  |  |  |  |--- 1 ==> sick
|  |  |  |  |  |  |  |  |  |  |  |  |  |  |  |  |  |--- 1 ==> healthy
|  |  |  |  |  |  |  |  |  |  |  |  |  |--- 111-119 ==> healthy
|  |  |  |  |  |  |  |  |  |  |  |  |  |--- 120-125 ==> healthy
|  |  |  |  |  |  |  |  |  |  |  |  |  |--- 126+ ==> healthy
|  |  |  |  |  |  |  |  |  |  |  |--- 1 ==> healthy
|  |  |  |  |  |  |  |  |  |--- 1 ==> healthy
|  |  |  |  |  |  |  |--- 1 ==> healthy
|  |  |  |  |  |--- 1 
|  |  |  |  |  |  |  |--- gender_female 
|  |  |  |  |  |  |  |--- 0 ==> healthy
|  |  |  |  |  |  |  |--- 1 ==> sick
|  |  |  |--- 31+ 
|  |  |  |  |  |--- work_type_private 
|  |  |  |  |  |--- 0 ==> healthy
|  |  |  |  |  |--- 1 
|  |  |  |  |  |  |  |--- avg_glucose_level 
|  |  |  |  |  |  |  |--- 0-110 
|  |  |  |  |  |  |  |  |  |--- smoking_status_never_smoked 
|  |  |  |  |  |  |  |  |  |--- 0 
|  |  |  |  |  |  |  |  |  |  |  |--- smoking_status_unknown 
|  |  |  |  |  |  |  |  |  |  |  |--- 0 
|  |  |  |  |  |  |  |  |  |  |  |  |  |--- ever_married_no 
|  |  |  |  |  |  |  |  |  |  |  |  |  |--- 0 
|  |  |  |  |  |  |  |  |  |  |  |  |  |  |  |--- gender_female 
|  |  |  |  |  |  |  |  |  |  |  |  |  |  |  |--- 0 
|  |  |  |  |  |  |  |  |  |  |  |  |  |  |  |  |  |--- smoking_status_formerly_smoked 
|  |  |  |  |  |  |  |  |  |  |  |  |  |  |  |  |  |--- 0 ==> healthy
|  |  |  |  |  |  |  |  |  |  |  |  |  |  |  |  |  |--- 1 
|  |  |  |  |  |  |  |  |  |  |  |  |  |  |  |  |  |  |  |--- residence_type_rural 
|  |  |  |  |  |  |  |  |  |  |  |  |  |  |  |  |  |  |  |--- 0 
|  |  |  |  |  |  |  |  |  |  |  |  |  |  |  |  |  |  |  |  |  |--- hypertension 
|  |  |  |  |  |  |  |  |  |  |  |  |  |  |  |  |  |  |  |  |  |--- 0 
|  |  |  |  |  |  |  |  |  |  |  |  |  |  |  |  |  |  |  |  |  |  |  |--- heart_disease 
|  |  |  |  |  |  |  |  |  |  |  |  |  |  |  |  |  |  |  |  |  |  |  |--- 0 
|  |  |  |  |  |  |  |  |  |  |  |  |  |  |  |  |  |  |  |  |  |  |  |  |  |--- gender_male 
|  |  |  |  |  |  |  |  |  |  |  |  |  |  |  |  |  |  |  |  |  |  |  |  |  |--- 0 ==> ???
|  |  |  |  |  |  |  |  |  |  |  |  |  |  |  |  |  |  |  |  |  |  |  |  |  |--- 1 
|  |  |  |  |  |  |  |  |  |  |  |  |  |  |  |  |  |  |  |  |  |  |  |  |  |  |  |--- gender_other 
|  |  |  |  |  |  |  |  |  |  |  |  |  |  |  |  |  |  |  |  |  |  |  |  |  |  |  |--- 0 
|  |  |  |  |  |  |  |  |  |  |  |  |  |  |  |  |  |  |  |  |  |  |  |  |  |  |  |  |  |--- ever_married_yes 
|  |  |  |  |  |  |  |  |  |  |  |  |  |  |  |  |  |  |  |  |  |  |  |  |  |  |  |  |  |--- 0 ==> ???
|  |  |  |  |  |  |  |  |  |  |  |  |  |  |  |  |  |  |  |  |  |  |  |  |  |  |  |  |  |--- 1 
|  |  |  |  |  |  |  |  |  |  |  |  |  |  |  |  |  |  |  |  |  |  |  |  |  |  |  |  |  |  |  |--- residence_type_urban 
|  |  |  |  |  |  |  |  |  |  |  |  |  |  |  |  |  |  |  |  |  |  |  |  |  |  |  |  |  |  |  |--- 0 ==> ???
|  |  |  |  |  |  |  |  |  |  |  |  |  |  |  |  |  |  |  |  |  |  |  |  |  |  |  |  |  |  |  |--- 1 
|  |  |  |  |  |  |  |  |  |  |  |  |  |  |  |  |  |  |  |  |  |  |  |  |  |  |  |  |  |  |  |  |  |--- smoking_status_smokes 
|  |  |  |  |  |  |  |  |  |  |  |  |  |  |  |  |  |  |  |  |  |  |  |  |  |  |  |  |  |  |  |  |  |--- 0 
|  |  |  |  |  |  |  |  |  |  |  |  |  |  |  |  |  |  |  |  |  |  |  |  |  |  |  |  |  |  |  |  |  |  |  |--- work_type_govt_job 
|  |  |  |  |  |  |  |  |  |  |  |  |  |  |  |  |  |  |  |  |  |  |  |  |  |  |  |  |  |  |  |  |  |  |  |--- 0 
|  |  |  |  |  |  |  |  |  |  |  |  |  |  |  |  |  |  |  |  |  |  |  |  |  |  |  |  |  |  |  |  |  |  |  |  |  |--- work_type_never_worked 
|  |  |  |  |  |  |  |  |  |  |  |  |  |  |  |  |  |  |  |  |  |  |  |  |  |  |  |  |  |  |  |  |  |  |  |  |  |--- 0 
|  |  |  |  |  |  |  |  |  |  |  |  |  |  |  |  |  |  |  |  |  |  |  |  |  |  |  |  |  |  |  |  |  |  |  |  |  |  |  |--- work_type_self_employed 
|  |  |  |  |  |  |  |  |  |  |  |  |  |  |  |  |  |  |  |  |  |  |  |  |  |  |  |  |  |  |  |  |  |  |  |  |  |  |  |--- 0 
|  |  |  |  |  |  |  |  |  |  |  |  |  |  |  |  |  |  |  |  |  |  |  |  |  |  |  |  |  |  |  |  |  |  |  |  |  |  |  |  |  |--- work_type_children 
|  |  |  |  |  |  |  |  |  |  |  |  |  |  |  |  |  |  |  |  |  |  |  |  |  |  |  |  |  |  |  |  |  |  |  |  |  |  |  |  |  |--- 0 ==> [sick,healthy]
|  |  |  |  |  |  |  |  |  |  |  |  |  |  |  |  |  |  |  |  |  |  |  |  |  |  |  |  |  |  |  |  |  |  |  |  |  |  |  |  |  |--- 1 ==> ???
|  |  |  |  |  |  |  |  |  |  |  |  |  |  |  |  |  |  |  |  |  |  |  |  |  |  |  |  |  |  |  |  |  |  |  |  |  |  |  |--- 1 ==> ???
|  |  |  |  |  |  |  |  |  |  |  |  |  |  |  |  |  |  |  |  |  |  |  |  |  |  |  |  |  |  |  |  |  |  |  |  |  |--- 1 ==> ???
|  |  |  |  |  |  |  |  |  |  |  |  |  |  |  |  |  |  |  |  |  |  |  |  |  |  |  |  |  |  |  |  |  |  |  |--- 1 ==> ???
|  |  |  |  |  |  |  |  |  |  |  |  |  |  |  |  |  |  |  |  |  |  |  |  |  |  |  |  |  |  |  |  |  |--- 1 ==> ???
|  |  |  |  |  |  |  |  |  |  |  |  |  |  |  |  |  |  |  |  |  |  |  |  |  |  |  |--- 1 ==> ???
|  |  |  |  |  |  |  |  |  |  |  |  |  |  |  |  |  |  |  |  |  |  |  |--- 1 ==> ???
|  |  |  |  |  |  |  |  |  |  |  |  |  |  |  |  |  |  |  |  |  |--- 1 ==> ???
|  |  |  |  |  |  |  |  |  |  |  |  |  |  |  |  |  |  |  |--- 1 ==> healthy
|  |  |  |  |  |  |  |  |  |  |  |  |  |  |  |--- 1 
|  |  |  |  |  |  |  |  |  |  |  |  |  |  |  |  |  |--- residence_type_rural 
|  |  |  |  |  |  |  |  |  |  |  |  |  |  |  |  |  |--- 0 ==> healthy
|  |  |  |  |  |  |  |  |  |  |  |  |  |  |  |  |  |--- 1 
|  |  |  |  |  |  |  |  |  |  |  |  |  |  |  |  |  |  |  |--- smoking_status_formerly_smoked 
|  |  |  |  |  |  |  |  |  |  |  |  |  |  |  |  |  |  |  |--- 0 
|  |  |  |  |  |  |  |  |  |  |  |  |  |  |  |  |  |  |  |  |  |--- hypertension 
|  |  |  |  |  |  |  |  |  |  |  |  |  |  |  |  |  |  |  |  |  |--- 0 
|  |  |  |  |  |  |  |  |  |  |  |  |  |  |  |  |  |  |  |  |  |  |  |--- heart_disease 
|  |  |  |  |  |  |  |  |  |  |  |  |  |  |  |  |  |  |  |  |  |  |  |--- 0 
|  |  |  |  |  |  |  |  |  |  |  |  |  |  |  |  |  |  |  |  |  |  |  |  |  |--- gender_male 
|  |  |  |  |  |  |  |  |  |  |  |  |  |  |  |  |  |  |  |  |  |  |  |  |  |--- 0 
|  |  |  |  |  |  |  |  |  |  |  |  |  |  |  |  |  |  |  |  |  |  |  |  |  |  |  |--- gender_other 
|  |  |  |  |  |  |  |  |  |  |  |  |  |  |  |  |  |  |  |  |  |  |  |  |  |  |  |--- 0 
|  |  |  |  |  |  |  |  |  |  |  |  |  |  |  |  |  |  |  |  |  |  |  |  |  |  |  |  |  |--- ever_married_yes 
|  |  |  |  |  |  |  |  |  |  |  |  |  |  |  |  |  |  |  |  |  |  |  |  |  |  |  |  |  |--- 0 ==> ???
|  |  |  |  |  |  |  |  |  |  |  |  |  |  |  |  |  |  |  |  |  |  |  |  |  |  |  |  |  |--- 1 
|  |  |  |  |  |  |  |  |  |  |  |  |  |  |  |  |  |  |  |  |  |  |  |  |  |  |  |  |  |  |  |--- residence_type_urban 
|  |  |  |  |  |  |  |  |  |  |  |  |  |  |  |  |  |  |  |  |  |  |  |  |  |  |  |  |  |  |  |--- 0 
|  |  |  |  |  |  |  |  |  |  |  |  |  |  |  |  |  |  |  |  |  |  |  |  |  |  |  |  |  |  |  |  |  |--- smoking_status_smokes 
|  |  |  |  |  |  |  |  |  |  |  |  |  |  |  |  |  |  |  |  |  |  |  |  |  |  |  |  |  |  |  |  |  |--- 0 ==> ???
|  |  |  |  |  |  |  |  |  |  |  |  |  |  |  |  |  |  |  |  |  |  |  |  |  |  |  |  |  |  |  |  |  |--- 1 
|  |  |  |  |  |  |  |  |  |  |  |  |  |  |  |  |  |  |  |  |  |  |  |  |  |  |  |  |  |  |  |  |  |  |  |--- work_type_govt_job 
|  |  |  |  |  |  |  |  |  |  |  |  |  |  |  |  |  |  |  |  |  |  |  |  |  |  |  |  |  |  |  |  |  |  |  |--- 0 
|  |  |  |  |  |  |  |  |  |  |  |  |  |  |  |  |  |  |  |  |  |  |  |  |  |  |  |  |  |  |  |  |  |  |  |  |  |--- work_type_never_worked 
|  |  |  |  |  |  |  |  |  |  |  |  |  |  |  |  |  |  |  |  |  |  |  |  |  |  |  |  |  |  |  |  |  |  |  |  |  |--- 0 
|  |  |  |  |  |  |  |  |  |  |  |  |  |  |  |  |  |  |  |  |  |  |  |  |  |  |  |  |  |  |  |  |  |  |  |  |  |  |  |--- work_type_self_employed 
|  |  |  |  |  |  |  |  |  |  |  |  |  |  |  |  |  |  |  |  |  |  |  |  |  |  |  |  |  |  |  |  |  |  |  |  |  |  |  |--- 0 
|  |  |  |  |  |  |  |  |  |  |  |  |  |  |  |  |  |  |  |  |  |  |  |  |  |  |  |  |  |  |  |  |  |  |  |  |  |  |  |  |  |--- work_type_children 
|  |  |  |  |  |  |  |  |  |  |  |  |  |  |  |  |  |  |  |  |  |  |  |  |  |  |  |  |  |  |  |  |  |  |  |  |  |  |  |  |  |--- 0 ==> [sick,healthy]
|  |  |  |  |  |  |  |  |  |  |  |  |  |  |  |  |  |  |  |  |  |  |  |  |  |  |  |  |  |  |  |  |  |  |  |  |  |  |  |  |  |--- 1 ==> ???
|  |  |  |  |  |  |  |  |  |  |  |  |  |  |  |  |  |  |  |  |  |  |  |  |  |  |  |  |  |  |  |  |  |  |  |  |  |  |  |--- 1 ==> ???
|  |  |  |  |  |  |  |  |  |  |  |  |  |  |  |  |  |  |  |  |  |  |  |  |  |  |  |  |  |  |  |  |  |  |  |  |  |--- 1 ==> ???
|  |  |  |  |  |  |  |  |  |  |  |  |  |  |  |  |  |  |  |  |  |  |  |  |  |  |  |  |  |  |  |  |  |  |  |--- 1 ==> ???
|  |  |  |  |  |  |  |  |  |  |  |  |  |  |  |  |  |  |  |  |  |  |  |  |  |  |  |  |  |  |  |--- 1 ==> ???
|  |  |  |  |  |  |  |  |  |  |  |  |  |  |  |  |  |  |  |  |  |  |  |  |  |  |  |--- 1 ==> ???
|  |  |  |  |  |  |  |  |  |  |  |  |  |  |  |  |  |  |  |  |  |  |  |  |  |--- 1 ==> ???
|  |  |  |  |  |  |  |  |  |  |  |  |  |  |  |  |  |  |  |  |  |  |  |--- 1 ==> ???
|  |  |  |  |  |  |  |  |  |  |  |  |  |  |  |  |  |  |  |  |  |--- 1 ==> ???
|  |  |  |  |  |  |  |  |  |  |  |  |  |  |  |  |  |  |  |--- 1 ==> healthy
|  |  |  |  |  |  |  |  |  |  |  |  |  |--- 1 ==> healthy
|  |  |  |  |  |  |  |  |  |  |  |--- 1 ==> healthy
|  |  |  |  |  |  |  |  |  |--- 1 ==> healthy
|  |  |  |  |  |  |  |--- 111-119 ==> healthy
|  |  |  |  |  |  |  |--- 120-125 ==> healthy
|  |  |  |  |  |  |  |--- 126+ 
|  |  |  |  |  |  |  |  |  |--- gender_female 
|  |  |  |  |  |  |  |  |  |--- 0 ==> healthy
|  |  |  |  |  |  |  |  |  |--- 1 
|  |  |  |  |  |  |  |  |  |  |  |--- smoking_status_unknown 
|  |  |  |  |  |  |  |  |  |  |  |--- 0 
|  |  |  |  |  |  |  |  |  |  |  |  |  |--- smoking_status_formerly_smoked 
|  |  |  |  |  |  |  |  |  |  |  |  |  |--- 0 
|  |  |  |  |  |  |  |  |  |  |  |  |  |  |  |--- hypertension 
|  |  |  |  |  |  |  |  |  |  |  |  |  |  |  |--- 0 
|  |  |  |  |  |  |  |  |  |  |  |  |  |  |  |  |  |--- residence_type_rural 
|  |  |  |  |  |  |  |  |  |  |  |  |  |  |  |  |  |--- 0 
|  |  |  |  |  |  |  |  |  |  |  |  |  |  |  |  |  |  |  |--- smoking_status_never_smoked 
|  |  |  |  |  |  |  |  |  |  |  |  |  |  |  |  |  |  |  |--- 0 
|  |  |  |  |  |  |  |  |  |  |  |  |  |  |  |  |  |  |  |  |  |--- heart_disease 
|  |  |  |  |  |  |  |  |  |  |  |  |  |  |  |  |  |  |  |  |  |--- 0 
|  |  |  |  |  |  |  |  |  |  |  |  |  |  |  |  |  |  |  |  |  |  |  |--- gender_male 
|  |  |  |  |  |  |  |  |  |  |  |  |  |  |  |  |  |  |  |  |  |  |  |--- 0 
|  |  |  |  |  |  |  |  |  |  |  |  |  |  |  |  |  |  |  |  |  |  |  |  |  |--- gender_other 
|  |  |  |  |  |  |  |  |  |  |  |  |  |  |  |  |  |  |  |  |  |  |  |  |  |--- 0 
|  |  |  |  |  |  |  |  |  |  |  |  |  |  |  |  |  |  |  |  |  |  |  |  |  |  |  |--- ever_married_no 
|  |  |  |  |  |  |  |  |  |  |  |  |  |  |  |  |  |  |  |  |  |  |  |  |  |  |  |--- 0 
|  |  |  |  |  |  |  |  |  |  |  |  |  |  |  |  |  |  |  |  |  |  |  |  |  |  |  |  |  |--- ever_married_yes 
|  |  |  |  |  |  |  |  |  |  |  |  |  |  |  |  |  |  |  |  |  |  |  |  |  |  |  |  |  |--- 0 ==> ???
|  |  |  |  |  |  |  |  |  |  |  |  |  |  |  |  |  |  |  |  |  |  |  |  |  |  |  |  |  |--- 1 
|  |  |  |  |  |  |  |  |  |  |  |  |  |  |  |  |  |  |  |  |  |  |  |  |  |  |  |  |  |  |  |--- residence_type_urban 
|  |  |  |  |  |  |  |  |  |  |  |  |  |  |  |  |  |  |  |  |  |  |  |  |  |  |  |  |  |  |  |--- 0 ==> ???
|  |  |  |  |  |  |  |  |  |  |  |  |  |  |  |  |  |  |  |  |  |  |  |  |  |  |  |  |  |  |  |--- 1 
|  |  |  |  |  |  |  |  |  |  |  |  |  |  |  |  |  |  |  |  |  |  |  |  |  |  |  |  |  |  |  |  |  |--- smoking_status_smokes 
|  |  |  |  |  |  |  |  |  |  |  |  |  |  |  |  |  |  |  |  |  |  |  |  |  |  |  |  |  |  |  |  |  |--- 0 ==> ???
|  |  |  |  |  |  |  |  |  |  |  |  |  |  |  |  |  |  |  |  |  |  |  |  |  |  |  |  |  |  |  |  |  |--- 1 
|  |  |  |  |  |  |  |  |  |  |  |  |  |  |  |  |  |  |  |  |  |  |  |  |  |  |  |  |  |  |  |  |  |  |  |--- work_type_govt_job 
|  |  |  |  |  |  |  |  |  |  |  |  |  |  |  |  |  |  |  |  |  |  |  |  |  |  |  |  |  |  |  |  |  |  |  |--- 0 
|  |  |  |  |  |  |  |  |  |  |  |  |  |  |  |  |  |  |  |  |  |  |  |  |  |  |  |  |  |  |  |  |  |  |  |  |  |--- work_type_never_worked 
|  |  |  |  |  |  |  |  |  |  |  |  |  |  |  |  |  |  |  |  |  |  |  |  |  |  |  |  |  |  |  |  |  |  |  |  |  |--- 0 
|  |  |  |  |  |  |  |  |  |  |  |  |  |  |  |  |  |  |  |  |  |  |  |  |  |  |  |  |  |  |  |  |  |  |  |  |  |  |  |--- work_type_self_employed 
|  |  |  |  |  |  |  |  |  |  |  |  |  |  |  |  |  |  |  |  |  |  |  |  |  |  |  |  |  |  |  |  |  |  |  |  |  |  |  |--- 0 
|  |  |  |  |  |  |  |  |  |  |  |  |  |  |  |  |  |  |  |  |  |  |  |  |  |  |  |  |  |  |  |  |  |  |  |  |  |  |  |  |  |--- work_type_children 
|  |  |  |  |  |  |  |  |  |  |  |  |  |  |  |  |  |  |  |  |  |  |  |  |  |  |  |  |  |  |  |  |  |  |  |  |  |  |  |  |  |--- 0 ==> [sick,healthy]
|  |  |  |  |  |  |  |  |  |  |  |  |  |  |  |  |  |  |  |  |  |  |  |  |  |  |  |  |  |  |  |  |  |  |  |  |  |  |  |  |  |--- 1 ==> ???
|  |  |  |  |  |  |  |  |  |  |  |  |  |  |  |  |  |  |  |  |  |  |  |  |  |  |  |  |  |  |  |  |  |  |  |  |  |  |  |--- 1 ==> ???
|  |  |  |  |  |  |  |  |  |  |  |  |  |  |  |  |  |  |  |  |  |  |  |  |  |  |  |  |  |  |  |  |  |  |  |  |  |--- 1 ==> ???
|  |  |  |  |  |  |  |  |  |  |  |  |  |  |  |  |  |  |  |  |  |  |  |  |  |  |  |  |  |  |  |  |  |  |  |--- 1 ==> ???
|  |  |  |  |  |  |  |  |  |  |  |  |  |  |  |  |  |  |  |  |  |  |  |  |  |  |  |--- 1 ==> ???
|  |  |  |  |  |  |  |  |  |  |  |  |  |  |  |  |  |  |  |  |  |  |  |  |  |--- 1 ==> ???
|  |  |  |  |  |  |  |  |  |  |  |  |  |  |  |  |  |  |  |  |  |  |  |--- 1 ==> ???
|  |  |  |  |  |  |  |  |  |  |  |  |  |  |  |  |  |  |  |  |  |--- 1 ==> ???
|  |  |  |  |  |  |  |  |  |  |  |  |  |  |  |  |  |  |  |--- 1 ==> healthy
|  |  |  |  |  |  |  |  |  |  |  |  |  |  |  |  |  |--- 1 
|  |  |  |  |  |  |  |  |  |  |  |  |  |  |  |  |  |  |  |--- smoking_status_never_smoked 
|  |  |  |  |  |  |  |  |  |  |  |  |  |  |  |  |  |  |  |--- 0 ==> healthy
|  |  |  |  |  |  |  |  |  |  |  |  |  |  |  |  |  |  |  |--- 1 
|  |  |  |  |  |  |  |  |  |  |  |  |  |  |  |  |  |  |  |  |  |--- heart_disease 
|  |  |  |  |  |  |  |  |  |  |  |  |  |  |  |  |  |  |  |  |  |--- 0 
|  |  |  |  |  |  |  |  |  |  |  |  |  |  |  |  |  |  |  |  |  |  |  |--- gender_male 
|  |  |  |  |  |  |  |  |  |  |  |  |  |  |  |  |  |  |  |  |  |  |  |--- 0 
|  |  |  |  |  |  |  |  |  |  |  |  |  |  |  |  |  |  |  |  |  |  |  |  |  |--- gender_other 
|  |  |  |  |  |  |  |  |  |  |  |  |  |  |  |  |  |  |  |  |  |  |  |  |  |--- 0 
|  |  |  |  |  |  |  |  |  |  |  |  |  |  |  |  |  |  |  |  |  |  |  |  |  |  |  |--- ever_married_no 
|  |  |  |  |  |  |  |  |  |  |  |  |  |  |  |  |  |  |  |  |  |  |  |  |  |  |  |--- 0 
|  |  |  |  |  |  |  |  |  |  |  |  |  |  |  |  |  |  |  |  |  |  |  |  |  |  |  |  |  |--- ever_married_yes 
|  |  |  |  |  |  |  |  |  |  |  |  |  |  |  |  |  |  |  |  |  |  |  |  |  |  |  |  |  |--- 0 ==> ???
|  |  |  |  |  |  |  |  |  |  |  |  |  |  |  |  |  |  |  |  |  |  |  |  |  |  |  |  |  |--- 1 
|  |  |  |  |  |  |  |  |  |  |  |  |  |  |  |  |  |  |  |  |  |  |  |  |  |  |  |  |  |  |  |--- residence_type_urban 
|  |  |  |  |  |  |  |  |  |  |  |  |  |  |  |  |  |  |  |  |  |  |  |  |  |  |  |  |  |  |  |--- 0 
|  |  |  |  |  |  |  |  |  |  |  |  |  |  |  |  |  |  |  |  |  |  |  |  |  |  |  |  |  |  |  |  |  |--- smoking_status_smokes 
|  |  |  |  |  |  |  |  |  |  |  |  |  |  |  |  |  |  |  |  |  |  |  |  |  |  |  |  |  |  |  |  |  |--- 0 
|  |  |  |  |  |  |  |  |  |  |  |  |  |  |  |  |  |  |  |  |  |  |  |  |  |  |  |  |  |  |  |  |  |  |  |--- work_type_govt_job 
|  |  |  |  |  |  |  |  |  |  |  |  |  |  |  |  |  |  |  |  |  |  |  |  |  |  |  |  |  |  |  |  |  |  |  |--- 0 
|  |  |  |  |  |  |  |  |  |  |  |  |  |  |  |  |  |  |  |  |  |  |  |  |  |  |  |  |  |  |  |  |  |  |  |  |  |--- work_type_never_worked 
|  |  |  |  |  |  |  |  |  |  |  |  |  |  |  |  |  |  |  |  |  |  |  |  |  |  |  |  |  |  |  |  |  |  |  |  |  |--- 0 
|  |  |  |  |  |  |  |  |  |  |  |  |  |  |  |  |  |  |  |  |  |  |  |  |  |  |  |  |  |  |  |  |  |  |  |  |  |  |  |--- work_type_self_employed 
|  |  |  |  |  |  |  |  |  |  |  |  |  |  |  |  |  |  |  |  |  |  |  |  |  |  |  |  |  |  |  |  |  |  |  |  |  |  |  |--- 0 
|  |  |  |  |  |  |  |  |  |  |  |  |  |  |  |  |  |  |  |  |  |  |  |  |  |  |  |  |  |  |  |  |  |  |  |  |  |  |  |  |  |--- work_type_children 
|  |  |  |  |  |  |  |  |  |  |  |  |  |  |  |  |  |  |  |  |  |  |  |  |  |  |  |  |  |  |  |  |  |  |  |  |  |  |  |  |  |--- 0 ==> [sick,healthy]
|  |  |  |  |  |  |  |  |  |  |  |  |  |  |  |  |  |  |  |  |  |  |  |  |  |  |  |  |  |  |  |  |  |  |  |  |  |  |  |  |  |--- 1 ==> ???
|  |  |  |  |  |  |  |  |  |  |  |  |  |  |  |  |  |  |  |  |  |  |  |  |  |  |  |  |  |  |  |  |  |  |  |  |  |  |  |--- 1 ==> ???
|  |  |  |  |  |  |  |  |  |  |  |  |  |  |  |  |  |  |  |  |  |  |  |  |  |  |  |  |  |  |  |  |  |  |  |  |  |--- 1 ==> ???
|  |  |  |  |  |  |  |  |  |  |  |  |  |  |  |  |  |  |  |  |  |  |  |  |  |  |  |  |  |  |  |  |  |  |  |--- 1 ==> ???
|  |  |  |  |  |  |  |  |  |  |  |  |  |  |  |  |  |  |  |  |  |  |  |  |  |  |  |  |  |  |  |  |  |--- 1 ==> ???
|  |  |  |  |  |  |  |  |  |  |  |  |  |  |  |  |  |  |  |  |  |  |  |  |  |  |  |  |  |  |  |--- 1 ==> ???
|  |  |  |  |  |  |  |  |  |  |  |  |  |  |  |  |  |  |  |  |  |  |  |  |  |  |  |--- 1 ==> ???
|  |  |  |  |  |  |  |  |  |  |  |  |  |  |  |  |  |  |  |  |  |  |  |  |  |--- 1 ==> ???
|  |  |  |  |  |  |  |  |  |  |  |  |  |  |  |  |  |  |  |  |  |  |  |--- 1 ==> ???
|  |  |  |  |  |  |  |  |  |  |  |  |  |  |  |  |  |  |  |  |  |--- 1 ==> ???
|  |  |  |  |  |  |  |  |  |  |  |  |  |  |  |--- 1 ==> healthy
|  |  |  |  |  |  |  |  |  |  |  |  |  |--- 1 ==> healthy
|  |  |  |  |  |  |  |  |  |  |  |--- 1 ==> healthy
|  |  |  |--- Unknown ==> healthy
|  |--- 51-60 
|  |  |  |--- bmi 
|  |  |  |--- 0-18 ==> healthy
|  |  |  |--- 19-25 
|  |  |  |  |  |--- work_type_private 
|  |  |  |  |  |--- 0 
|  |  |  |  |  |  |  |--- hypertension 
|  |  |  |  |  |  |  |--- 0 
|  |  |  |  |  |  |  |  |  |--- work_type_govt_job 
|  |  |  |  |  |  |  |  |  |--- 0 
|  |  |  |  |  |  |  |  |  |  |  |--- residence_type_rural 
|  |  |  |  |  |  |  |  |  |  |  |--- 0 ==> healthy
|  |  |  |  |  |  |  |  |  |  |  |--- 1 
|  |  |  |  |  |  |  |  |  |  |  |  |  |--- ever_married_no 
|  |  |  |  |  |  |  |  |  |  |  |  |  |--- 0 
|  |  |  |  |  |  |  |  |  |  |  |  |  |  |  |--- heart_disease 
|  |  |  |  |  |  |  |  |  |  |  |  |  |  |  |--- 0 
|  |  |  |  |  |  |  |  |  |  |  |  |  |  |  |  |  |--- avg_glucose_level 
|  |  |  |  |  |  |  |  |  |  |  |  |  |  |  |  |  |--- 0-110 
|  |  |  |  |  |  |  |  |  |  |  |  |  |  |  |  |  |  |  |--- gender_female 
|  |  |  |  |  |  |  |  |  |  |  |  |  |  |  |  |  |  |  |--- 0 ==> ???
|  |  |  |  |  |  |  |  |  |  |  |  |  |  |  |  |  |  |  |--- 1 
|  |  |  |  |  |  |  |  |  |  |  |  |  |  |  |  |  |  |  |  |  |--- gender_male 
|  |  |  |  |  |  |  |  |  |  |  |  |  |  |  |  |  |  |  |  |  |--- 0 
|  |  |  |  |  |  |  |  |  |  |  |  |  |  |  |  |  |  |  |  |  |  |  |--- gender_other 
|  |  |  |  |  |  |  |  |  |  |  |  |  |  |  |  |  |  |  |  |  |  |  |--- 0 
|  |  |  |  |  |  |  |  |  |  |  |  |  |  |  |  |  |  |  |  |  |  |  |  |  |--- ever_married_yes 
|  |  |  |  |  |  |  |  |  |  |  |  |  |  |  |  |  |  |  |  |  |  |  |  |  |--- 0 ==> ???
|  |  |  |  |  |  |  |  |  |  |  |  |  |  |  |  |  |  |  |  |  |  |  |  |  |--- 1 
|  |  |  |  |  |  |  |  |  |  |  |  |  |  |  |  |  |  |  |  |  |  |  |  |  |  |  |--- residence_type_urban 
|  |  |  |  |  |  |  |  |  |  |  |  |  |  |  |  |  |  |  |  |  |  |  |  |  |  |  |--- 0 
|  |  |  |  |  |  |  |  |  |  |  |  |  |  |  |  |  |  |  |  |  |  |  |  |  |  |  |  |  |--- smoking_status_unknown 
|  |  |  |  |  |  |  |  |  |  |  |  |  |  |  |  |  |  |  |  |  |  |  |  |  |  |  |  |  |--- 0 
|  |  |  |  |  |  |  |  |  |  |  |  |  |  |  |  |  |  |  |  |  |  |  |  |  |  |  |  |  |  |  |--- smoking_status_formerly_smoked 
|  |  |  |  |  |  |  |  |  |  |  |  |  |  |  |  |  |  |  |  |  |  |  |  |  |  |  |  |  |  |  |--- 0 
|  |  |  |  |  |  |  |  |  |  |  |  |  |  |  |  |  |  |  |  |  |  |  |  |  |  |  |  |  |  |  |  |  |--- smoking_status_never_smoked 
|  |  |  |  |  |  |  |  |  |  |  |  |  |  |  |  |  |  |  |  |  |  |  |  |  |  |  |  |  |  |  |  |  |--- 0 ==> ???
|  |  |  |  |  |  |  |  |  |  |  |  |  |  |  |  |  |  |  |  |  |  |  |  |  |  |  |  |  |  |  |  |  |--- 1 
|  |  |  |  |  |  |  |  |  |  |  |  |  |  |  |  |  |  |  |  |  |  |  |  |  |  |  |  |  |  |  |  |  |  |  |--- smoking_status_smokes 
|  |  |  |  |  |  |  |  |  |  |  |  |  |  |  |  |  |  |  |  |  |  |  |  |  |  |  |  |  |  |  |  |  |  |  |--- 0 
|  |  |  |  |  |  |  |  |  |  |  |  |  |  |  |  |  |  |  |  |  |  |  |  |  |  |  |  |  |  |  |  |  |  |  |  |  |--- work_type_never_worked 
|  |  |  |  |  |  |  |  |  |  |  |  |  |  |  |  |  |  |  |  |  |  |  |  |  |  |  |  |  |  |  |  |  |  |  |  |  |--- 0 
|  |  |  |  |  |  |  |  |  |  |  |  |  |  |  |  |  |  |  |  |  |  |  |  |  |  |  |  |  |  |  |  |  |  |  |  |  |  |  |--- work_type_self_employed 
|  |  |  |  |  |  |  |  |  |  |  |  |  |  |  |  |  |  |  |  |  |  |  |  |  |  |  |  |  |  |  |  |  |  |  |  |  |  |  |--- 0 ==> ???
|  |  |  |  |  |  |  |  |  |  |  |  |  |  |  |  |  |  |  |  |  |  |  |  |  |  |  |  |  |  |  |  |  |  |  |  |  |  |  |--- 1 
|  |  |  |  |  |  |  |  |  |  |  |  |  |  |  |  |  |  |  |  |  |  |  |  |  |  |  |  |  |  |  |  |  |  |  |  |  |  |  |  |  |--- work_type_children 
|  |  |  |  |  |  |  |  |  |  |  |  |  |  |  |  |  |  |  |  |  |  |  |  |  |  |  |  |  |  |  |  |  |  |  |  |  |  |  |  |  |--- 0 ==> [sick,healthy]
|  |  |  |  |  |  |  |  |  |  |  |  |  |  |  |  |  |  |  |  |  |  |  |  |  |  |  |  |  |  |  |  |  |  |  |  |  |  |  |  |  |--- 1 ==> ???
|  |  |  |  |  |  |  |  |  |  |  |  |  |  |  |  |  |  |  |  |  |  |  |  |  |  |  |  |  |  |  |  |  |  |  |  |  |--- 1 ==> ???
|  |  |  |  |  |  |  |  |  |  |  |  |  |  |  |  |  |  |  |  |  |  |  |  |  |  |  |  |  |  |  |  |  |  |  |--- 1 ==> ???
|  |  |  |  |  |  |  |  |  |  |  |  |  |  |  |  |  |  |  |  |  |  |  |  |  |  |  |  |  |  |  |--- 1 ==> ???
|  |  |  |  |  |  |  |  |  |  |  |  |  |  |  |  |  |  |  |  |  |  |  |  |  |  |  |  |  |--- 1 ==> ???
|  |  |  |  |  |  |  |  |  |  |  |  |  |  |  |  |  |  |  |  |  |  |  |  |  |  |  |--- 1 ==> ???
|  |  |  |  |  |  |  |  |  |  |  |  |  |  |  |  |  |  |  |  |  |  |  |--- 1 ==> ???
|  |  |  |  |  |  |  |  |  |  |  |  |  |  |  |  |  |  |  |  |  |--- 1 ==> ???
|  |  |  |  |  |  |  |  |  |  |  |  |  |  |  |  |  |--- 111-119 ==> ???
|  |  |  |  |  |  |  |  |  |  |  |  |  |  |  |  |  |--- 120-125 ==> ???
|  |  |  |  |  |  |  |  |  |  |  |  |  |  |  |  |  |--- 126+ ==> ???
|  |  |  |  |  |  |  |  |  |  |  |  |  |  |  |--- 1 ==> ???
|  |  |  |  |  |  |  |  |  |  |  |  |  |--- 1 ==> healthy
|  |  |  |  |  |  |  |  |  |--- 1 ==> healthy
|  |  |  |  |  |  |  |--- 1 
|  |  |  |  |  |  |  |  |  |--- avg_glucose_level 
|  |  |  |  |  |  |  |  |  |--- 0-110 ==> healthy
|  |  |  |  |  |  |  |  |  |--- 111-119 ==> ???
|  |  |  |  |  |  |  |  |  |--- 120-125 ==> ???
|  |  |  |  |  |  |  |  |  |--- 126+ ==> sick
|  |  |  |  |  |--- 1 ==> healthy
|  |  |  |--- 26-30 
|  |  |  |  |  |--- avg_glucose_level 
|  |  |  |  |  |--- 0-110 
|  |  |  |  |  |  |  |--- work_type_self_employed 
|  |  |  |  |  |  |  |--- 0 
|  |  |  |  |  |  |  |  |  |--- ever_married_no 
|  |  |  |  |  |  |  |  |  |--- 0 
|  |  |  |  |  |  |  |  |  |  |  |--- smoking_status_smokes 
|  |  |  |  |  |  |  |  |  |  |  |--- 0 
|  |  |  |  |  |  |  |  |  |  |  |  |  |--- hypertension 
|  |  |  |  |  |  |  |  |  |  |  |  |  |--- 0 
|  |  |  |  |  |  |  |  |  |  |  |  |  |  |  |--- smoking_status_unknown 
|  |  |  |  |  |  |  |  |  |  |  |  |  |  |  |--- 0 
|  |  |  |  |  |  |  |  |  |  |  |  |  |  |  |  |  |--- smoking_status_formerly_smoked 
|  |  |  |  |  |  |  |  |  |  |  |  |  |  |  |  |  |--- 0 
|  |  |  |  |  |  |  |  |  |  |  |  |  |  |  |  |  |  |  |--- work_type_govt_job 
|  |  |  |  |  |  |  |  |  |  |  |  |  |  |  |  |  |  |  |--- 0 
|  |  |  |  |  |  |  |  |  |  |  |  |  |  |  |  |  |  |  |  |  |--- heart_disease 
|  |  |  |  |  |  |  |  |  |  |  |  |  |  |  |  |  |  |  |  |  |--- 0 
|  |  |  |  |  |  |  |  |  |  |  |  |  |  |  |  |  |  |  |  |  |  |  |--- residence_type_rural 
|  |  |  |  |  |  |  |  |  |  |  |  |  |  |  |  |  |  |  |  |  |  |  |--- 0 
|  |  |  |  |  |  |  |  |  |  |  |  |  |  |  |  |  |  |  |  |  |  |  |  |  |--- gender_female 
|  |  |  |  |  |  |  |  |  |  |  |  |  |  |  |  |  |  |  |  |  |  |  |  |  |--- 0 
|  |  |  |  |  |  |  |  |  |  |  |  |  |  |  |  |  |  |  |  |  |  |  |  |  |  |  |--- gender_male 
|  |  |  |  |  |  |  |  |  |  |  |  |  |  |  |  |  |  |  |  |  |  |  |  |  |  |  |--- 0 ==> ???
|  |  |  |  |  |  |  |  |  |  |  |  |  |  |  |  |  |  |  |  |  |  |  |  |  |  |  |--- 1 
|  |  |  |  |  |  |  |  |  |  |  |  |  |  |  |  |  |  |  |  |  |  |  |  |  |  |  |  |  |--- gender_other 
|  |  |  |  |  |  |  |  |  |  |  |  |  |  |  |  |  |  |  |  |  |  |  |  |  |  |  |  |  |--- 0 
|  |  |  |  |  |  |  |  |  |  |  |  |  |  |  |  |  |  |  |  |  |  |  |  |  |  |  |  |  |  |  |--- ever_married_yes 
|  |  |  |  |  |  |  |  |  |  |  |  |  |  |  |  |  |  |  |  |  |  |  |  |  |  |  |  |  |  |  |--- 0 ==> ???
|  |  |  |  |  |  |  |  |  |  |  |  |  |  |  |  |  |  |  |  |  |  |  |  |  |  |  |  |  |  |  |--- 1 
|  |  |  |  |  |  |  |  |  |  |  |  |  |  |  |  |  |  |  |  |  |  |  |  |  |  |  |  |  |  |  |  |  |--- residence_type_urban 
|  |  |  |  |  |  |  |  |  |  |  |  |  |  |  |  |  |  |  |  |  |  |  |  |  |  |  |  |  |  |  |  |  |--- 0 ==> ???
|  |  |  |  |  |  |  |  |  |  |  |  |  |  |  |  |  |  |  |  |  |  |  |  |  |  |  |  |  |  |  |  |  |--- 1 
|  |  |  |  |  |  |  |  |  |  |  |  |  |  |  |  |  |  |  |  |  |  |  |  |  |  |  |  |  |  |  |  |  |  |  |--- smoking_status_never_smoked 
|  |  |  |  |  |  |  |  |  |  |  |  |  |  |  |  |  |  |  |  |  |  |  |  |  |  |  |  |  |  |  |  |  |  |  |--- 0 ==> ???
|  |  |  |  |  |  |  |  |  |  |  |  |  |  |  |  |  |  |  |  |  |  |  |  |  |  |  |  |  |  |  |  |  |  |  |--- 1 
|  |  |  |  |  |  |  |  |  |  |  |  |  |  |  |  |  |  |  |  |  |  |  |  |  |  |  |  |  |  |  |  |  |  |  |  |  |--- work_type_never_worked 
|  |  |  |  |  |  |  |  |  |  |  |  |  |  |  |  |  |  |  |  |  |  |  |  |  |  |  |  |  |  |  |  |  |  |  |  |  |--- 0 
|  |  |  |  |  |  |  |  |  |  |  |  |  |  |  |  |  |  |  |  |  |  |  |  |  |  |  |  |  |  |  |  |  |  |  |  |  |  |  |--- work_type_private 
|  |  |  |  |  |  |  |  |  |  |  |  |  |  |  |  |  |  |  |  |  |  |  |  |  |  |  |  |  |  |  |  |  |  |  |  |  |  |  |--- 0 ==> ???
|  |  |  |  |  |  |  |  |  |  |  |  |  |  |  |  |  |  |  |  |  |  |  |  |  |  |  |  |  |  |  |  |  |  |  |  |  |  |  |--- 1 
|  |  |  |  |  |  |  |  |  |  |  |  |  |  |  |  |  |  |  |  |  |  |  |  |  |  |  |  |  |  |  |  |  |  |  |  |  |  |  |  |  |--- work_type_children 
|  |  |  |  |  |  |  |  |  |  |  |  |  |  |  |  |  |  |  |  |  |  |  |  |  |  |  |  |  |  |  |  |  |  |  |  |  |  |  |  |  |--- 0 ==> [sick,healthy]
|  |  |  |  |  |  |  |  |  |  |  |  |  |  |  |  |  |  |  |  |  |  |  |  |  |  |  |  |  |  |  |  |  |  |  |  |  |  |  |  |  |--- 1 ==> ???
|  |  |  |  |  |  |  |  |  |  |  |  |  |  |  |  |  |  |  |  |  |  |  |  |  |  |  |  |  |  |  |  |  |  |  |  |  |--- 1 ==> ???
|  |  |  |  |  |  |  |  |  |  |  |  |  |  |  |  |  |  |  |  |  |  |  |  |  |  |  |  |  |--- 1 ==> ???
|  |  |  |  |  |  |  |  |  |  |  |  |  |  |  |  |  |  |  |  |  |  |  |  |  |--- 1 ==> healthy
|  |  |  |  |  |  |  |  |  |  |  |  |  |  |  |  |  |  |  |  |  |  |  |--- 1 
|  |  |  |  |  |  |  |  |  |  |  |  |  |  |  |  |  |  |  |  |  |  |  |  |  |--- gender_female 
|  |  |  |  |  |  |  |  |  |  |  |  |  |  |  |  |  |  |  |  |  |  |  |  |  |--- 0 ==> healthy
|  |  |  |  |  |  |  |  |  |  |  |  |  |  |  |  |  |  |  |  |  |  |  |  |  |--- 1 
|  |  |  |  |  |  |  |  |  |  |  |  |  |  |  |  |  |  |  |  |  |  |  |  |  |  |  |--- gender_male 
|  |  |  |  |  |  |  |  |  |  |  |  |  |  |  |  |  |  |  |  |  |  |  |  |  |  |  |--- 0 
|  |  |  |  |  |  |  |  |  |  |  |  |  |  |  |  |  |  |  |  |  |  |  |  |  |  |  |  |  |--- gender_other 
|  |  |  |  |  |  |  |  |  |  |  |  |  |  |  |  |  |  |  |  |  |  |  |  |  |  |  |  |  |--- 0 
|  |  |  |  |  |  |  |  |  |  |  |  |  |  |  |  |  |  |  |  |  |  |  |  |  |  |  |  |  |  |  |--- ever_married_yes 
|  |  |  |  |  |  |  |  |  |  |  |  |  |  |  |  |  |  |  |  |  |  |  |  |  |  |  |  |  |  |  |--- 0 ==> ???
|  |  |  |  |  |  |  |  |  |  |  |  |  |  |  |  |  |  |  |  |  |  |  |  |  |  |  |  |  |  |  |--- 1 
|  |  |  |  |  |  |  |  |  |  |  |  |  |  |  |  |  |  |  |  |  |  |  |  |  |  |  |  |  |  |  |  |  |--- residence_type_urban 
|  |  |  |  |  |  |  |  |  |  |  |  |  |  |  |  |  |  |  |  |  |  |  |  |  |  |  |  |  |  |  |  |  |--- 0 
|  |  |  |  |  |  |  |  |  |  |  |  |  |  |  |  |  |  |  |  |  |  |  |  |  |  |  |  |  |  |  |  |  |  |  |--- smoking_status_never_smoked 
|  |  |  |  |  |  |  |  |  |  |  |  |  |  |  |  |  |  |  |  |  |  |  |  |  |  |  |  |  |  |  |  |  |  |  |--- 0 ==> ???
|  |  |  |  |  |  |  |  |  |  |  |  |  |  |  |  |  |  |  |  |  |  |  |  |  |  |  |  |  |  |  |  |  |  |  |--- 1 
|  |  |  |  |  |  |  |  |  |  |  |  |  |  |  |  |  |  |  |  |  |  |  |  |  |  |  |  |  |  |  |  |  |  |  |  |  |--- work_type_never_worked 
|  |  |  |  |  |  |  |  |  |  |  |  |  |  |  |  |  |  |  |  |  |  |  |  |  |  |  |  |  |  |  |  |  |  |  |  |  |--- 0 
|  |  |  |  |  |  |  |  |  |  |  |  |  |  |  |  |  |  |  |  |  |  |  |  |  |  |  |  |  |  |  |  |  |  |  |  |  |  |  |--- work_type_private 
|  |  |  |  |  |  |  |  |  |  |  |  |  |  |  |  |  |  |  |  |  |  |  |  |  |  |  |  |  |  |  |  |  |  |  |  |  |  |  |--- 0 ==> ???
|  |  |  |  |  |  |  |  |  |  |  |  |  |  |  |  |  |  |  |  |  |  |  |  |  |  |  |  |  |  |  |  |  |  |  |  |  |  |  |--- 1 
|  |  |  |  |  |  |  |  |  |  |  |  |  |  |  |  |  |  |  |  |  |  |  |  |  |  |  |  |  |  |  |  |  |  |  |  |  |  |  |  |  |--- work_type_children 
|  |  |  |  |  |  |  |  |  |  |  |  |  |  |  |  |  |  |  |  |  |  |  |  |  |  |  |  |  |  |  |  |  |  |  |  |  |  |  |  |  |--- 0 ==> [sick,healthy]
|  |  |  |  |  |  |  |  |  |  |  |  |  |  |  |  |  |  |  |  |  |  |  |  |  |  |  |  |  |  |  |  |  |  |  |  |  |  |  |  |  |--- 1 ==> ???
|  |  |  |  |  |  |  |  |  |  |  |  |  |  |  |  |  |  |  |  |  |  |  |  |  |  |  |  |  |  |  |  |  |  |  |  |  |--- 1 ==> ???
|  |  |  |  |  |  |  |  |  |  |  |  |  |  |  |  |  |  |  |  |  |  |  |  |  |  |  |  |  |  |  |  |  |--- 1 ==> ???
|  |  |  |  |  |  |  |  |  |  |  |  |  |  |  |  |  |  |  |  |  |  |  |  |  |  |  |  |  |--- 1 ==> ???
|  |  |  |  |  |  |  |  |  |  |  |  |  |  |  |  |  |  |  |  |  |  |  |  |  |  |  |--- 1 ==> ???
|  |  |  |  |  |  |  |  |  |  |  |  |  |  |  |  |  |  |  |  |  |--- 1 ==> healthy
|  |  |  |  |  |  |  |  |  |  |  |  |  |  |  |  |  |  |  |--- 1 ==> healthy
|  |  |  |  |  |  |  |  |  |  |  |  |  |  |  |  |  |--- 1 
|  |  |  |  |  |  |  |  |  |  |  |  |  |  |  |  |  |  |  |--- residence_type_rural 
|  |  |  |  |  |  |  |  |  |  |  |  |  |  |  |  |  |  |  |--- 0 
|  |  |  |  |  |  |  |  |  |  |  |  |  |  |  |  |  |  |  |  |  |--- gender_female 
|  |  |  |  |  |  |  |  |  |  |  |  |  |  |  |  |  |  |  |  |  |--- 0 
|  |  |  |  |  |  |  |  |  |  |  |  |  |  |  |  |  |  |  |  |  |  |  |--- heart_disease 
|  |  |  |  |  |  |  |  |  |  |  |  |  |  |  |  |  |  |  |  |  |  |  |--- 0 
|  |  |  |  |  |  |  |  |  |  |  |  |  |  |  |  |  |  |  |  |  |  |  |  |  |--- work_type_govt_job 
|  |  |  |  |  |  |  |  |  |  |  |  |  |  |  |  |  |  |  |  |  |  |  |  |  |--- 0 
|  |  |  |  |  |  |  |  |  |  |  |  |  |  |  |  |  |  |  |  |  |  |  |  |  |  |  |--- gender_male 
|  |  |  |  |  |  |  |  |  |  |  |  |  |  |  |  |  |  |  |  |  |  |  |  |  |  |  |--- 0 ==> ???
|  |  |  |  |  |  |  |  |  |  |  |  |  |  |  |  |  |  |  |  |  |  |  |  |  |  |  |--- 1 
|  |  |  |  |  |  |  |  |  |  |  |  |  |  |  |  |  |  |  |  |  |  |  |  |  |  |  |  |  |--- gender_other 
|  |  |  |  |  |  |  |  |  |  |  |  |  |  |  |  |  |  |  |  |  |  |  |  |  |  |  |  |  |--- 0 
|  |  |  |  |  |  |  |  |  |  |  |  |  |  |  |  |  |  |  |  |  |  |  |  |  |  |  |  |  |  |  |--- ever_married_yes 
|  |  |  |  |  |  |  |  |  |  |  |  |  |  |  |  |  |  |  |  |  |  |  |  |  |  |  |  |  |  |  |--- 0 ==> ???
|  |  |  |  |  |  |  |  |  |  |  |  |  |  |  |  |  |  |  |  |  |  |  |  |  |  |  |  |  |  |  |--- 1 
|  |  |  |  |  |  |  |  |  |  |  |  |  |  |  |  |  |  |  |  |  |  |  |  |  |  |  |  |  |  |  |  |  |--- residence_type_urban 
|  |  |  |  |  |  |  |  |  |  |  |  |  |  |  |  |  |  |  |  |  |  |  |  |  |  |  |  |  |  |  |  |  |--- 0 ==> ???
|  |  |  |  |  |  |  |  |  |  |  |  |  |  |  |  |  |  |  |  |  |  |  |  |  |  |  |  |  |  |  |  |  |--- 1 
|  |  |  |  |  |  |  |  |  |  |  |  |  |  |  |  |  |  |  |  |  |  |  |  |  |  |  |  |  |  |  |  |  |  |  |--- smoking_status_never_smoked 
|  |  |  |  |  |  |  |  |  |  |  |  |  |  |  |  |  |  |  |  |  |  |  |  |  |  |  |  |  |  |  |  |  |  |  |--- 0 
|  |  |  |  |  |  |  |  |  |  |  |  |  |  |  |  |  |  |  |  |  |  |  |  |  |  |  |  |  |  |  |  |  |  |  |  |  |--- work_type_never_worked 
|  |  |  |  |  |  |  |  |  |  |  |  |  |  |  |  |  |  |  |  |  |  |  |  |  |  |  |  |  |  |  |  |  |  |  |  |  |--- 0 
|  |  |  |  |  |  |  |  |  |  |  |  |  |  |  |  |  |  |  |  |  |  |  |  |  |  |  |  |  |  |  |  |  |  |  |  |  |  |  |--- work_type_private 
|  |  |  |  |  |  |  |  |  |  |  |  |  |  |  |  |  |  |  |  |  |  |  |  |  |  |  |  |  |  |  |  |  |  |  |  |  |  |  |--- 0 ==> ???
|  |  |  |  |  |  |  |  |  |  |  |  |  |  |  |  |  |  |  |  |  |  |  |  |  |  |  |  |  |  |  |  |  |  |  |  |  |  |  |--- 1 
|  |  |  |  |  |  |  |  |  |  |  |  |  |  |  |  |  |  |  |  |  |  |  |  |  |  |  |  |  |  |  |  |  |  |  |  |  |  |  |  |  |--- work_type_children 
|  |  |  |  |  |  |  |  |  |  |  |  |  |  |  |  |  |  |  |  |  |  |  |  |  |  |  |  |  |  |  |  |  |  |  |  |  |  |  |  |  |--- 0 ==> [sick,healthy]
|  |  |  |  |  |  |  |  |  |  |  |  |  |  |  |  |  |  |  |  |  |  |  |  |  |  |  |  |  |  |  |  |  |  |  |  |  |  |  |  |  |--- 1 ==> ???
|  |  |  |  |  |  |  |  |  |  |  |  |  |  |  |  |  |  |  |  |  |  |  |  |  |  |  |  |  |  |  |  |  |  |  |  |  |--- 1 ==> ???
|  |  |  |  |  |  |  |  |  |  |  |  |  |  |  |  |  |  |  |  |  |  |  |  |  |  |  |  |  |  |  |  |  |  |  |--- 1 ==> ???
|  |  |  |  |  |  |  |  |  |  |  |  |  |  |  |  |  |  |  |  |  |  |  |  |  |  |  |  |  |--- 1 ==> ???
|  |  |  |  |  |  |  |  |  |  |  |  |  |  |  |  |  |  |  |  |  |  |  |  |  |--- 1 ==> healthy
|  |  |  |  |  |  |  |  |  |  |  |  |  |  |  |  |  |  |  |  |  |  |  |--- 1 ==> healthy
|  |  |  |  |  |  |  |  |  |  |  |  |  |  |  |  |  |  |  |  |  |--- 1 ==> healthy
|  |  |  |  |  |  |  |  |  |  |  |  |  |  |  |  |  |  |  |--- 1 
|  |  |  |  |  |  |  |  |  |  |  |  |  |  |  |  |  |  |  |  |  |--- gender_female 
|  |  |  |  |  |  |  |  |  |  |  |  |  |  |  |  |  |  |  |  |  |--- 0 ==> healthy
|  |  |  |  |  |  |  |  |  |  |  |  |  |  |  |  |  |  |  |  |  |--- 1 
|  |  |  |  |  |  |  |  |  |  |  |  |  |  |  |  |  |  |  |  |  |  |  |--- heart_disease 
|  |  |  |  |  |  |  |  |  |  |  |  |  |  |  |  |  |  |  |  |  |  |  |--- 0 
|  |  |  |  |  |  |  |  |  |  |  |  |  |  |  |  |  |  |  |  |  |  |  |  |  |--- gender_male 
|  |  |  |  |  |  |  |  |  |  |  |  |  |  |  |  |  |  |  |  |  |  |  |  |  |--- 0 
|  |  |  |  |  |  |  |  |  |  |  |  |  |  |  |  |  |  |  |  |  |  |  |  |  |  |  |--- gender_other 
|  |  |  |  |  |  |  |  |  |  |  |  |  |  |  |  |  |  |  |  |  |  |  |  |  |  |  |--- 0 
|  |  |  |  |  |  |  |  |  |  |  |  |  |  |  |  |  |  |  |  |  |  |  |  |  |  |  |  |  |--- ever_married_yes 
|  |  |  |  |  |  |  |  |  |  |  |  |  |  |  |  |  |  |  |  |  |  |  |  |  |  |  |  |  |--- 0 ==> ???
|  |  |  |  |  |  |  |  |  |  |  |  |  |  |  |  |  |  |  |  |  |  |  |  |  |  |  |  |  |--- 1 
|  |  |  |  |  |  |  |  |  |  |  |  |  |  |  |  |  |  |  |  |  |  |  |  |  |  |  |  |  |  |  |--- residence_type_urban 
|  |  |  |  |  |  |  |  |  |  |  |  |  |  |  |  |  |  |  |  |  |  |  |  |  |  |  |  |  |  |  |--- 0 
|  |  |  |  |  |  |  |  |  |  |  |  |  |  |  |  |  |  |  |  |  |  |  |  |  |  |  |  |  |  |  |  |  |--- smoking_status_never_smoked 
|  |  |  |  |  |  |  |  |  |  |  |  |  |  |  |  |  |  |  |  |  |  |  |  |  |  |  |  |  |  |  |  |  |--- 0 
|  |  |  |  |  |  |  |  |  |  |  |  |  |  |  |  |  |  |  |  |  |  |  |  |  |  |  |  |  |  |  |  |  |  |  |--- work_type_govt_job 
|  |  |  |  |  |  |  |  |  |  |  |  |  |  |  |  |  |  |  |  |  |  |  |  |  |  |  |  |  |  |  |  |  |  |  |--- 0 
|  |  |  |  |  |  |  |  |  |  |  |  |  |  |  |  |  |  |  |  |  |  |  |  |  |  |  |  |  |  |  |  |  |  |  |  |  |--- work_type_never_worked 
|  |  |  |  |  |  |  |  |  |  |  |  |  |  |  |  |  |  |  |  |  |  |  |  |  |  |  |  |  |  |  |  |  |  |  |  |  |--- 0 
|  |  |  |  |  |  |  |  |  |  |  |  |  |  |  |  |  |  |  |  |  |  |  |  |  |  |  |  |  |  |  |  |  |  |  |  |  |  |  |--- work_type_private 
|  |  |  |  |  |  |  |  |  |  |  |  |  |  |  |  |  |  |  |  |  |  |  |  |  |  |  |  |  |  |  |  |  |  |  |  |  |  |  |--- 0 ==> ???
|  |  |  |  |  |  |  |  |  |  |  |  |  |  |  |  |  |  |  |  |  |  |  |  |  |  |  |  |  |  |  |  |  |  |  |  |  |  |  |--- 1 
|  |  |  |  |  |  |  |  |  |  |  |  |  |  |  |  |  |  |  |  |  |  |  |  |  |  |  |  |  |  |  |  |  |  |  |  |  |  |  |  |  |--- work_type_children 
|  |  |  |  |  |  |  |  |  |  |  |  |  |  |  |  |  |  |  |  |  |  |  |  |  |  |  |  |  |  |  |  |  |  |  |  |  |  |  |  |  |--- 0 ==> [sick,healthy]
|  |  |  |  |  |  |  |  |  |  |  |  |  |  |  |  |  |  |  |  |  |  |  |  |  |  |  |  |  |  |  |  |  |  |  |  |  |  |  |  |  |--- 1 ==> ???
|  |  |  |  |  |  |  |  |  |  |  |  |  |  |  |  |  |  |  |  |  |  |  |  |  |  |  |  |  |  |  |  |  |  |  |  |  |--- 1 ==> ???
|  |  |  |  |  |  |  |  |  |  |  |  |  |  |  |  |  |  |  |  |  |  |  |  |  |  |  |  |  |  |  |  |  |  |  |--- 1 
|  |  |  |  |  |  |  |  |  |  |  |  |  |  |  |  |  |  |  |  |  |  |  |  |  |  |  |  |  |  |  |  |  |  |  |  |  |--- work_type_never_worked 
|  |  |  |  |  |  |  |  |  |  |  |  |  |  |  |  |  |  |  |  |  |  |  |  |  |  |  |  |  |  |  |  |  |  |  |  |  |--- 0 
|  |  |  |  |  |  |  |  |  |  |  |  |  |  |  |  |  |  |  |  |  |  |  |  |  |  |  |  |  |  |  |  |  |  |  |  |  |  |  |--- work_type_private 
|  |  |  |  |  |  |  |  |  |  |  |  |  |  |  |  |  |  |  |  |  |  |  |  |  |  |  |  |  |  |  |  |  |  |  |  |  |  |  |--- 0 
|  |  |  |  |  |  |  |  |  |  |  |  |  |  |  |  |  |  |  |  |  |  |  |  |  |  |  |  |  |  |  |  |  |  |  |  |  |  |  |  |  |--- work_type_children 
|  |  |  |  |  |  |  |  |  |  |  |  |  |  |  |  |  |  |  |  |  |  |  |  |  |  |  |  |  |  |  |  |  |  |  |  |  |  |  |  |  |--- 0 ==> [sick,healthy]
|  |  |  |  |  |  |  |  |  |  |  |  |  |  |  |  |  |  |  |  |  |  |  |  |  |  |  |  |  |  |  |  |  |  |  |  |  |  |  |  |  |--- 1 ==> ???
|  |  |  |  |  |  |  |  |  |  |  |  |  |  |  |  |  |  |  |  |  |  |  |  |  |  |  |  |  |  |  |  |  |  |  |  |  |  |  |--- 1 ==> ???
|  |  |  |  |  |  |  |  |  |  |  |  |  |  |  |  |  |  |  |  |  |  |  |  |  |  |  |  |  |  |  |  |  |  |  |  |  |--- 1 ==> ???
|  |  |  |  |  |  |  |  |  |  |  |  |  |  |  |  |  |  |  |  |  |  |  |  |  |  |  |  |  |  |  |  |  |--- 1 ==> ???
|  |  |  |  |  |  |  |  |  |  |  |  |  |  |  |  |  |  |  |  |  |  |  |  |  |  |  |  |  |  |  |--- 1 ==> ???
|  |  |  |  |  |  |  |  |  |  |  |  |  |  |  |  |  |  |  |  |  |  |  |  |  |  |  |--- 1 ==> ???
|  |  |  |  |  |  |  |  |  |  |  |  |  |  |  |  |  |  |  |  |  |  |  |  |  |--- 1 ==> ???
|  |  |  |  |  |  |  |  |  |  |  |  |  |  |  |  |  |  |  |  |  |  |  |--- 1 ==> healthy
|  |  |  |  |  |  |  |  |  |  |  |  |  |  |  |--- 1 ==> healthy
|  |  |  |  |  |  |  |  |  |  |  |  |  |--- 1 
|  |  |  |  |  |  |  |  |  |  |  |  |  |  |  |--- smoking_status_unknown 
|  |  |  |  |  |  |  |  |  |  |  |  |  |  |  |--- 0 ==> healthy
|  |  |  |  |  |  |  |  |  |  |  |  |  |  |  |--- 1 ==> sick
|  |  |  |  |  |  |  |  |  |  |  |--- 1 
|  |  |  |  |  |  |  |  |  |  |  |  |  |--- work_type_govt_job 
|  |  |  |  |  |  |  |  |  |  |  |  |  |--- 0 
|  |  |  |  |  |  |  |  |  |  |  |  |  |  |  |--- hypertension 
|  |  |  |  |  |  |  |  |  |  |  |  |  |  |  |--- 0 
|  |  |  |  |  |  |  |  |  |  |  |  |  |  |  |  |  |--- gender_female 
|  |  |  |  |  |  |  |  |  |  |  |  |  |  |  |  |  |--- 0 
|  |  |  |  |  |  |  |  |  |  |  |  |  |  |  |  |  |  |  |--- residence_type_rural 
|  |  |  |  |  |  |  |  |  |  |  |  |  |  |  |  |  |  |  |--- 0 ==> healthy
|  |  |  |  |  |  |  |  |  |  |  |  |  |  |  |  |  |  |  |--- 1 
|  |  |  |  |  |  |  |  |  |  |  |  |  |  |  |  |  |  |  |  |  |--- heart_disease 
|  |  |  |  |  |  |  |  |  |  |  |  |  |  |  |  |  |  |  |  |  |--- 0 
|  |  |  |  |  |  |  |  |  |  |  |  |  |  |  |  |  |  |  |  |  |  |  |--- gender_male 
|  |  |  |  |  |  |  |  |  |  |  |  |  |  |  |  |  |  |  |  |  |  |  |--- 0 ==> ???
|  |  |  |  |  |  |  |  |  |  |  |  |  |  |  |  |  |  |  |  |  |  |  |--- 1 
|  |  |  |  |  |  |  |  |  |  |  |  |  |  |  |  |  |  |  |  |  |  |  |  |  |--- gender_other 
|  |  |  |  |  |  |  |  |  |  |  |  |  |  |  |  |  |  |  |  |  |  |  |  |  |--- 0 
|  |  |  |  |  |  |  |  |  |  |  |  |  |  |  |  |  |  |  |  |  |  |  |  |  |  |  |--- ever_married_yes 
|  |  |  |  |  |  |  |  |  |  |  |  |  |  |  |  |  |  |  |  |  |  |  |  |  |  |  |--- 0 ==> ???
|  |  |  |  |  |  |  |  |  |  |  |  |  |  |  |  |  |  |  |  |  |  |  |  |  |  |  |--- 1 
|  |  |  |  |  |  |  |  |  |  |  |  |  |  |  |  |  |  |  |  |  |  |  |  |  |  |  |  |  |--- residence_type_urban 
|  |  |  |  |  |  |  |  |  |  |  |  |  |  |  |  |  |  |  |  |  |  |  |  |  |  |  |  |  |--- 0 
|  |  |  |  |  |  |  |  |  |  |  |  |  |  |  |  |  |  |  |  |  |  |  |  |  |  |  |  |  |  |  |--- smoking_status_unknown 
|  |  |  |  |  |  |  |  |  |  |  |  |  |  |  |  |  |  |  |  |  |  |  |  |  |  |  |  |  |  |  |--- 0 
|  |  |  |  |  |  |  |  |  |  |  |  |  |  |  |  |  |  |  |  |  |  |  |  |  |  |  |  |  |  |  |  |  |--- smoking_status_formerly_smoked 
|  |  |  |  |  |  |  |  |  |  |  |  |  |  |  |  |  |  |  |  |  |  |  |  |  |  |  |  |  |  |  |  |  |--- 0 
|  |  |  |  |  |  |  |  |  |  |  |  |  |  |  |  |  |  |  |  |  |  |  |  |  |  |  |  |  |  |  |  |  |  |  |--- smoking_status_never_smoked 
|  |  |  |  |  |  |  |  |  |  |  |  |  |  |  |  |  |  |  |  |  |  |  |  |  |  |  |  |  |  |  |  |  |  |  |--- 0 
|  |  |  |  |  |  |  |  |  |  |  |  |  |  |  |  |  |  |  |  |  |  |  |  |  |  |  |  |  |  |  |  |  |  |  |  |  |--- work_type_never_worked 
|  |  |  |  |  |  |  |  |  |  |  |  |  |  |  |  |  |  |  |  |  |  |  |  |  |  |  |  |  |  |  |  |  |  |  |  |  |--- 0 
|  |  |  |  |  |  |  |  |  |  |  |  |  |  |  |  |  |  |  |  |  |  |  |  |  |  |  |  |  |  |  |  |  |  |  |  |  |  |  |--- work_type_private 
|  |  |  |  |  |  |  |  |  |  |  |  |  |  |  |  |  |  |  |  |  |  |  |  |  |  |  |  |  |  |  |  |  |  |  |  |  |  |  |--- 0 ==> ???
|  |  |  |  |  |  |  |  |  |  |  |  |  |  |  |  |  |  |  |  |  |  |  |  |  |  |  |  |  |  |  |  |  |  |  |  |  |  |  |--- 1 
|  |  |  |  |  |  |  |  |  |  |  |  |  |  |  |  |  |  |  |  |  |  |  |  |  |  |  |  |  |  |  |  |  |  |  |  |  |  |  |  |  |--- work_type_children 
|  |  |  |  |  |  |  |  |  |  |  |  |  |  |  |  |  |  |  |  |  |  |  |  |  |  |  |  |  |  |  |  |  |  |  |  |  |  |  |  |  |--- 0 ==> [sick,healthy]
|  |  |  |  |  |  |  |  |  |  |  |  |  |  |  |  |  |  |  |  |  |  |  |  |  |  |  |  |  |  |  |  |  |  |  |  |  |  |  |  |  |--- 1 ==> ???
|  |  |  |  |  |  |  |  |  |  |  |  |  |  |  |  |  |  |  |  |  |  |  |  |  |  |  |  |  |  |  |  |  |  |  |  |  |--- 1 ==> ???
|  |  |  |  |  |  |  |  |  |  |  |  |  |  |  |  |  |  |  |  |  |  |  |  |  |  |  |  |  |  |  |  |  |  |  |--- 1 ==> ???
|  |  |  |  |  |  |  |  |  |  |  |  |  |  |  |  |  |  |  |  |  |  |  |  |  |  |  |  |  |  |  |  |  |--- 1 ==> ???
|  |  |  |  |  |  |  |  |  |  |  |  |  |  |  |  |  |  |  |  |  |  |  |  |  |  |  |  |  |  |  |--- 1 ==> ???
|  |  |  |  |  |  |  |  |  |  |  |  |  |  |  |  |  |  |  |  |  |  |  |  |  |  |  |  |  |--- 1 ==> ???
|  |  |  |  |  |  |  |  |  |  |  |  |  |  |  |  |  |  |  |  |  |  |  |  |  |--- 1 ==> ???
|  |  |  |  |  |  |  |  |  |  |  |  |  |  |  |  |  |  |  |  |  |--- 1 ==> ???
|  |  |  |  |  |  |  |  |  |  |  |  |  |  |  |  |  |--- 1 
|  |  |  |  |  |  |  |  |  |  |  |  |  |  |  |  |  |  |  |--- residence_type_rural 
|  |  |  |  |  |  |  |  |  |  |  |  |  |  |  |  |  |  |  |--- 0 
|  |  |  |  |  |  |  |  |  |  |  |  |  |  |  |  |  |  |  |  |  |--- heart_disease 
|  |  |  |  |  |  |  |  |  |  |  |  |  |  |  |  |  |  |  |  |  |--- 0 
|  |  |  |  |  |  |  |  |  |  |  |  |  |  |  |  |  |  |  |  |  |  |  |--- gender_male 
|  |  |  |  |  |  |  |  |  |  |  |  |  |  |  |  |  |  |  |  |  |  |  |--- 0 
|  |  |  |  |  |  |  |  |  |  |  |  |  |  |  |  |  |  |  |  |  |  |  |  |  |--- gender_other 
|  |  |  |  |  |  |  |  |  |  |  |  |  |  |  |  |  |  |  |  |  |  |  |  |  |--- 0 
|  |  |  |  |  |  |  |  |  |  |  |  |  |  |  |  |  |  |  |  |  |  |  |  |  |  |  |--- ever_married_yes 
|  |  |  |  |  |  |  |  |  |  |  |  |  |  |  |  |  |  |  |  |  |  |  |  |  |  |  |--- 0 ==> ???
|  |  |  |  |  |  |  |  |  |  |  |  |  |  |  |  |  |  |  |  |  |  |  |  |  |  |  |--- 1 
|  |  |  |  |  |  |  |  |  |  |  |  |  |  |  |  |  |  |  |  |  |  |  |  |  |  |  |  |  |--- residence_type_urban 
|  |  |  |  |  |  |  |  |  |  |  |  |  |  |  |  |  |  |  |  |  |  |  |  |  |  |  |  |  |--- 0 ==> ???
|  |  |  |  |  |  |  |  |  |  |  |  |  |  |  |  |  |  |  |  |  |  |  |  |  |  |  |  |  |--- 1 
|  |  |  |  |  |  |  |  |  |  |  |  |  |  |  |  |  |  |  |  |  |  |  |  |  |  |  |  |  |  |  |--- smoking_status_unknown 
|  |  |  |  |  |  |  |  |  |  |  |  |  |  |  |  |  |  |  |  |  |  |  |  |  |  |  |  |  |  |  |--- 0 
|  |  |  |  |  |  |  |  |  |  |  |  |  |  |  |  |  |  |  |  |  |  |  |  |  |  |  |  |  |  |  |  |  |--- smoking_status_formerly_smoked 
|  |  |  |  |  |  |  |  |  |  |  |  |  |  |  |  |  |  |  |  |  |  |  |  |  |  |  |  |  |  |  |  |  |--- 0 
|  |  |  |  |  |  |  |  |  |  |  |  |  |  |  |  |  |  |  |  |  |  |  |  |  |  |  |  |  |  |  |  |  |  |  |--- smoking_status_never_smoked 
|  |  |  |  |  |  |  |  |  |  |  |  |  |  |  |  |  |  |  |  |  |  |  |  |  |  |  |  |  |  |  |  |  |  |  |--- 0 
|  |  |  |  |  |  |  |  |  |  |  |  |  |  |  |  |  |  |  |  |  |  |  |  |  |  |  |  |  |  |  |  |  |  |  |  |  |--- work_type_never_worked 
|  |  |  |  |  |  |  |  |  |  |  |  |  |  |  |  |  |  |  |  |  |  |  |  |  |  |  |  |  |  |  |  |  |  |  |  |  |--- 0 
|  |  |  |  |  |  |  |  |  |  |  |  |  |  |  |  |  |  |  |  |  |  |  |  |  |  |  |  |  |  |  |  |  |  |  |  |  |  |  |--- work_type_private 
|  |  |  |  |  |  |  |  |  |  |  |  |  |  |  |  |  |  |  |  |  |  |  |  |  |  |  |  |  |  |  |  |  |  |  |  |  |  |  |--- 0 ==> ???
|  |  |  |  |  |  |  |  |  |  |  |  |  |  |  |  |  |  |  |  |  |  |  |  |  |  |  |  |  |  |  |  |  |  |  |  |  |  |  |--- 1 
|  |  |  |  |  |  |  |  |  |  |  |  |  |  |  |  |  |  |  |  |  |  |  |  |  |  |  |  |  |  |  |  |  |  |  |  |  |  |  |  |  |--- work_type_children 
|  |  |  |  |  |  |  |  |  |  |  |  |  |  |  |  |  |  |  |  |  |  |  |  |  |  |  |  |  |  |  |  |  |  |  |  |  |  |  |  |  |--- 0 ==> [sick,healthy]
|  |  |  |  |  |  |  |  |  |  |  |  |  |  |  |  |  |  |  |  |  |  |  |  |  |  |  |  |  |  |  |  |  |  |  |  |  |  |  |  |  |--- 1 ==> ???
|  |  |  |  |  |  |  |  |  |  |  |  |  |  |  |  |  |  |  |  |  |  |  |  |  |  |  |  |  |  |  |  |  |  |  |  |  |--- 1 ==> ???
|  |  |  |  |  |  |  |  |  |  |  |  |  |  |  |  |  |  |  |  |  |  |  |  |  |  |  |  |  |  |  |  |  |  |  |--- 1 ==> ???
|  |  |  |  |  |  |  |  |  |  |  |  |  |  |  |  |  |  |  |  |  |  |  |  |  |  |  |  |  |  |  |  |  |--- 1 ==> ???
|  |  |  |  |  |  |  |  |  |  |  |  |  |  |  |  |  |  |  |  |  |  |  |  |  |  |  |  |  |  |  |--- 1 ==> ???
|  |  |  |  |  |  |  |  |  |  |  |  |  |  |  |  |  |  |  |  |  |  |  |  |  |--- 1 ==> ???
|  |  |  |  |  |  |  |  |  |  |  |  |  |  |  |  |  |  |  |  |  |  |  |--- 1 ==> ???
|  |  |  |  |  |  |  |  |  |  |  |  |  |  |  |  |  |  |  |  |  |--- 1 ==> ???
|  |  |  |  |  |  |  |  |  |  |  |  |  |  |  |  |  |  |  |--- 1 ==> healthy
|  |  |  |  |  |  |  |  |  |  |  |  |  |  |  |--- 1 ==> healthy
|  |  |  |  |  |  |  |  |  |  |  |  |  |--- 1 ==> healthy
|  |  |  |  |  |  |  |  |  |--- 1 ==> healthy
|  |  |  |  |  |  |  |--- 1 ==> healthy
|  |  |  |  |  |--- 111-119 ==> healthy
|  |  |  |  |  |--- 120-125 ==> healthy
|  |  |  |  |  |--- 126+ ==> healthy
|  |  |  |--- 31+ 
|  |  |  |  |  |--- smoking_status_never_smoked 
|  |  |  |  |  |--- 0 
|  |  |  |  |  |  |  |--- avg_glucose_level 
|  |  |  |  |  |  |  |--- 0-110 
|  |  |  |  |  |  |  |  |  |--- gender_female 
|  |  |  |  |  |  |  |  |  |--- 0 
|  |  |  |  |  |  |  |  |  |  |  |--- smoking_status_formerly_smoked 
|  |  |  |  |  |  |  |  |  |  |  |--- 0 
|  |  |  |  |  |  |  |  |  |  |  |  |  |--- work_type_self_employed 
|  |  |  |  |  |  |  |  |  |  |  |  |  |--- 0 
|  |  |  |  |  |  |  |  |  |  |  |  |  |  |  |--- hypertension 
|  |  |  |  |  |  |  |  |  |  |  |  |  |  |  |--- 0 
|  |  |  |  |  |  |  |  |  |  |  |  |  |  |  |  |  |--- work_type_govt_job 
|  |  |  |  |  |  |  |  |  |  |  |  |  |  |  |  |  |--- 0 
|  |  |  |  |  |  |  |  |  |  |  |  |  |  |  |  |  |  |  |--- smoking_status_unknown 
|  |  |  |  |  |  |  |  |  |  |  |  |  |  |  |  |  |  |  |--- 0 
|  |  |  |  |  |  |  |  |  |  |  |  |  |  |  |  |  |  |  |  |  |--- residence_type_rural 
|  |  |  |  |  |  |  |  |  |  |  |  |  |  |  |  |  |  |  |  |  |--- 0 ==> sick
|  |  |  |  |  |  |  |  |  |  |  |  |  |  |  |  |  |  |  |  |  |--- 1 ==> healthy
|  |  |  |  |  |  |  |  |  |  |  |  |  |  |  |  |  |  |  |--- 1 
|  |  |  |  |  |  |  |  |  |  |  |  |  |  |  |  |  |  |  |  |  |--- residence_type_rural 
|  |  |  |  |  |  |  |  |  |  |  |  |  |  |  |  |  |  |  |  |  |--- 0 
|  |  |  |  |  |  |  |  |  |  |  |  |  |  |  |  |  |  |  |  |  |  |  |--- heart_disease 
|  |  |  |  |  |  |  |  |  |  |  |  |  |  |  |  |  |  |  |  |  |  |  |--- 0 
|  |  |  |  |  |  |  |  |  |  |  |  |  |  |  |  |  |  |  |  |  |  |  |  |  |--- gender_male 
|  |  |  |  |  |  |  |  |  |  |  |  |  |  |  |  |  |  |  |  |  |  |  |  |  |--- 0 ==> ???
|  |  |  |  |  |  |  |  |  |  |  |  |  |  |  |  |  |  |  |  |  |  |  |  |  |--- 1 
|  |  |  |  |  |  |  |  |  |  |  |  |  |  |  |  |  |  |  |  |  |  |  |  |  |  |  |--- gender_other 
|  |  |  |  |  |  |  |  |  |  |  |  |  |  |  |  |  |  |  |  |  |  |  |  |  |  |  |--- 0 
|  |  |  |  |  |  |  |  |  |  |  |  |  |  |  |  |  |  |  |  |  |  |  |  |  |  |  |  |  |--- ever_married_no 
|  |  |  |  |  |  |  |  |  |  |  |  |  |  |  |  |  |  |  |  |  |  |  |  |  |  |  |  |  |--- 0 
|  |  |  |  |  |  |  |  |  |  |  |  |  |  |  |  |  |  |  |  |  |  |  |  |  |  |  |  |  |  |  |--- ever_married_yes 
|  |  |  |  |  |  |  |  |  |  |  |  |  |  |  |  |  |  |  |  |  |  |  |  |  |  |  |  |  |  |  |--- 0 ==> ???
|  |  |  |  |  |  |  |  |  |  |  |  |  |  |  |  |  |  |  |  |  |  |  |  |  |  |  |  |  |  |  |--- 1 
|  |  |  |  |  |  |  |  |  |  |  |  |  |  |  |  |  |  |  |  |  |  |  |  |  |  |  |  |  |  |  |  |  |--- residence_type_urban 
|  |  |  |  |  |  |  |  |  |  |  |  |  |  |  |  |  |  |  |  |  |  |  |  |  |  |  |  |  |  |  |  |  |--- 0 ==> ???
|  |  |  |  |  |  |  |  |  |  |  |  |  |  |  |  |  |  |  |  |  |  |  |  |  |  |  |  |  |  |  |  |  |--- 1 
|  |  |  |  |  |  |  |  |  |  |  |  |  |  |  |  |  |  |  |  |  |  |  |  |  |  |  |  |  |  |  |  |  |  |  |--- smoking_status_smokes 
|  |  |  |  |  |  |  |  |  |  |  |  |  |  |  |  |  |  |  |  |  |  |  |  |  |  |  |  |  |  |  |  |  |  |  |--- 0 
|  |  |  |  |  |  |  |  |  |  |  |  |  |  |  |  |  |  |  |  |  |  |  |  |  |  |  |  |  |  |  |  |  |  |  |  |  |--- work_type_never_worked 
|  |  |  |  |  |  |  |  |  |  |  |  |  |  |  |  |  |  |  |  |  |  |  |  |  |  |  |  |  |  |  |  |  |  |  |  |  |--- 0 
|  |  |  |  |  |  |  |  |  |  |  |  |  |  |  |  |  |  |  |  |  |  |  |  |  |  |  |  |  |  |  |  |  |  |  |  |  |  |  |--- work_type_private 
|  |  |  |  |  |  |  |  |  |  |  |  |  |  |  |  |  |  |  |  |  |  |  |  |  |  |  |  |  |  |  |  |  |  |  |  |  |  |  |--- 0 ==> ???
|  |  |  |  |  |  |  |  |  |  |  |  |  |  |  |  |  |  |  |  |  |  |  |  |  |  |  |  |  |  |  |  |  |  |  |  |  |  |  |--- 1 
|  |  |  |  |  |  |  |  |  |  |  |  |  |  |  |  |  |  |  |  |  |  |  |  |  |  |  |  |  |  |  |  |  |  |  |  |  |  |  |  |  |--- work_type_children 
|  |  |  |  |  |  |  |  |  |  |  |  |  |  |  |  |  |  |  |  |  |  |  |  |  |  |  |  |  |  |  |  |  |  |  |  |  |  |  |  |  |--- 0 ==> [sick,healthy]
|  |  |  |  |  |  |  |  |  |  |  |  |  |  |  |  |  |  |  |  |  |  |  |  |  |  |  |  |  |  |  |  |  |  |  |  |  |  |  |  |  |--- 1 ==> ???
|  |  |  |  |  |  |  |  |  |  |  |  |  |  |  |  |  |  |  |  |  |  |  |  |  |  |  |  |  |  |  |  |  |  |  |  |  |--- 1 ==> ???
|  |  |  |  |  |  |  |  |  |  |  |  |  |  |  |  |  |  |  |  |  |  |  |  |  |  |  |  |  |  |  |  |  |  |  |--- 1 ==> ???
|  |  |  |  |  |  |  |  |  |  |  |  |  |  |  |  |  |  |  |  |  |  |  |  |  |  |  |  |  |--- 1 ==> ???
|  |  |  |  |  |  |  |  |  |  |  |  |  |  |  |  |  |  |  |  |  |  |  |  |  |  |  |--- 1 ==> ???
|  |  |  |  |  |  |  |  |  |  |  |  |  |  |  |  |  |  |  |  |  |  |  |--- 1 ==> ???
|  |  |  |  |  |  |  |  |  |  |  |  |  |  |  |  |  |  |  |  |  |--- 1 
|  |  |  |  |  |  |  |  |  |  |  |  |  |  |  |  |  |  |  |  |  |  |  |--- ever_married_no 
|  |  |  |  |  |  |  |  |  |  |  |  |  |  |  |  |  |  |  |  |  |  |  |--- 0 
|  |  |  |  |  |  |  |  |  |  |  |  |  |  |  |  |  |  |  |  |  |  |  |  |  |--- heart_disease 
|  |  |  |  |  |  |  |  |  |  |  |  |  |  |  |  |  |  |  |  |  |  |  |  |  |--- 0 
|  |  |  |  |  |  |  |  |  |  |  |  |  |  |  |  |  |  |  |  |  |  |  |  |  |  |  |--- gender_male 
|  |  |  |  |  |  |  |  |  |  |  |  |  |  |  |  |  |  |  |  |  |  |  |  |  |  |  |--- 0 ==> ???
|  |  |  |  |  |  |  |  |  |  |  |  |  |  |  |  |  |  |  |  |  |  |  |  |  |  |  |--- 1 
|  |  |  |  |  |  |  |  |  |  |  |  |  |  |  |  |  |  |  |  |  |  |  |  |  |  |  |  |  |--- gender_other 
|  |  |  |  |  |  |  |  |  |  |  |  |  |  |  |  |  |  |  |  |  |  |  |  |  |  |  |  |  |--- 0 
|  |  |  |  |  |  |  |  |  |  |  |  |  |  |  |  |  |  |  |  |  |  |  |  |  |  |  |  |  |  |  |--- ever_married_yes 
|  |  |  |  |  |  |  |  |  |  |  |  |  |  |  |  |  |  |  |  |  |  |  |  |  |  |  |  |  |  |  |--- 0 ==> ???
|  |  |  |  |  |  |  |  |  |  |  |  |  |  |  |  |  |  |  |  |  |  |  |  |  |  |  |  |  |  |  |--- 1 
|  |  |  |  |  |  |  |  |  |  |  |  |  |  |  |  |  |  |  |  |  |  |  |  |  |  |  |  |  |  |  |  |  |--- residence_type_urban 
|  |  |  |  |  |  |  |  |  |  |  |  |  |  |  |  |  |  |  |  |  |  |  |  |  |  |  |  |  |  |  |  |  |--- 0 
|  |  |  |  |  |  |  |  |  |  |  |  |  |  |  |  |  |  |  |  |  |  |  |  |  |  |  |  |  |  |  |  |  |  |  |--- smoking_status_smokes 
|  |  |  |  |  |  |  |  |  |  |  |  |  |  |  |  |  |  |  |  |  |  |  |  |  |  |  |  |  |  |  |  |  |  |  |--- 0 
|  |  |  |  |  |  |  |  |  |  |  |  |  |  |  |  |  |  |  |  |  |  |  |  |  |  |  |  |  |  |  |  |  |  |  |  |  |--- work_type_never_worked 
|  |  |  |  |  |  |  |  |  |  |  |  |  |  |  |  |  |  |  |  |  |  |  |  |  |  |  |  |  |  |  |  |  |  |  |  |  |--- 0 
|  |  |  |  |  |  |  |  |  |  |  |  |  |  |  |  |  |  |  |  |  |  |  |  |  |  |  |  |  |  |  |  |  |  |  |  |  |  |  |--- work_type_private 
|  |  |  |  |  |  |  |  |  |  |  |  |  |  |  |  |  |  |  |  |  |  |  |  |  |  |  |  |  |  |  |  |  |  |  |  |  |  |  |--- 0 ==> ???
|  |  |  |  |  |  |  |  |  |  |  |  |  |  |  |  |  |  |  |  |  |  |  |  |  |  |  |  |  |  |  |  |  |  |  |  |  |  |  |--- 1 
|  |  |  |  |  |  |  |  |  |  |  |  |  |  |  |  |  |  |  |  |  |  |  |  |  |  |  |  |  |  |  |  |  |  |  |  |  |  |  |  |  |--- work_type_children 
|  |  |  |  |  |  |  |  |  |  |  |  |  |  |  |  |  |  |  |  |  |  |  |  |  |  |  |  |  |  |  |  |  |  |  |  |  |  |  |  |  |--- 0 ==> [sick,healthy]
|  |  |  |  |  |  |  |  |  |  |  |  |  |  |  |  |  |  |  |  |  |  |  |  |  |  |  |  |  |  |  |  |  |  |  |  |  |  |  |  |  |--- 1 ==> ???
|  |  |  |  |  |  |  |  |  |  |  |  |  |  |  |  |  |  |  |  |  |  |  |  |  |  |  |  |  |  |  |  |  |  |  |  |  |--- 1 ==> ???
|  |  |  |  |  |  |  |  |  |  |  |  |  |  |  |  |  |  |  |  |  |  |  |  |  |  |  |  |  |  |  |  |  |  |  |--- 1 ==> ???
|  |  |  |  |  |  |  |  |  |  |  |  |  |  |  |  |  |  |  |  |  |  |  |  |  |  |  |  |  |  |  |  |  |--- 1 ==> ???
|  |  |  |  |  |  |  |  |  |  |  |  |  |  |  |  |  |  |  |  |  |  |  |  |  |  |  |  |  |--- 1 ==> ???
|  |  |  |  |  |  |  |  |  |  |  |  |  |  |  |  |  |  |  |  |  |  |  |  |  |--- 1 ==> ???
|  |  |  |  |  |  |  |  |  |  |  |  |  |  |  |  |  |  |  |  |  |  |  |--- 1 
|  |  |  |  |  |  |  |  |  |  |  |  |  |  |  |  |  |  |  |  |  |  |  |  |  |--- heart_disease 
|  |  |  |  |  |  |  |  |  |  |  |  |  |  |  |  |  |  |  |  |  |  |  |  |  |--- 0 
|  |  |  |  |  |  |  |  |  |  |  |  |  |  |  |  |  |  |  |  |  |  |  |  |  |  |  |--- gender_male 
|  |  |  |  |  |  |  |  |  |  |  |  |  |  |  |  |  |  |  |  |  |  |  |  |  |  |  |--- 0 ==> ???
|  |  |  |  |  |  |  |  |  |  |  |  |  |  |  |  |  |  |  |  |  |  |  |  |  |  |  |--- 1 
|  |  |  |  |  |  |  |  |  |  |  |  |  |  |  |  |  |  |  |  |  |  |  |  |  |  |  |  |  |--- gender_other 
|  |  |  |  |  |  |  |  |  |  |  |  |  |  |  |  |  |  |  |  |  |  |  |  |  |  |  |  |  |--- 0 
|  |  |  |  |  |  |  |  |  |  |  |  |  |  |  |  |  |  |  |  |  |  |  |  |  |  |  |  |  |  |  |--- ever_married_yes 
|  |  |  |  |  |  |  |  |  |  |  |  |  |  |  |  |  |  |  |  |  |  |  |  |  |  |  |  |  |  |  |--- 0 
|  |  |  |  |  |  |  |  |  |  |  |  |  |  |  |  |  |  |  |  |  |  |  |  |  |  |  |  |  |  |  |  |  |--- residence_type_urban 
|  |  |  |  |  |  |  |  |  |  |  |  |  |  |  |  |  |  |  |  |  |  |  |  |  |  |  |  |  |  |  |  |  |--- 0 
|  |  |  |  |  |  |  |  |  |  |  |  |  |  |  |  |  |  |  |  |  |  |  |  |  |  |  |  |  |  |  |  |  |  |  |--- smoking_status_smokes 
|  |  |  |  |  |  |  |  |  |  |  |  |  |  |  |  |  |  |  |  |  |  |  |  |  |  |  |  |  |  |  |  |  |  |  |--- 0 
|  |  |  |  |  |  |  |  |  |  |  |  |  |  |  |  |  |  |  |  |  |  |  |  |  |  |  |  |  |  |  |  |  |  |  |  |  |--- work_type_never_worked 
|  |  |  |  |  |  |  |  |  |  |  |  |  |  |  |  |  |  |  |  |  |  |  |  |  |  |  |  |  |  |  |  |  |  |  |  |  |--- 0 
|  |  |  |  |  |  |  |  |  |  |  |  |  |  |  |  |  |  |  |  |  |  |  |  |  |  |  |  |  |  |  |  |  |  |  |  |  |  |  |--- work_type_private 
|  |  |  |  |  |  |  |  |  |  |  |  |  |  |  |  |  |  |  |  |  |  |  |  |  |  |  |  |  |  |  |  |  |  |  |  |  |  |  |--- 0 ==> ???
|  |  |  |  |  |  |  |  |  |  |  |  |  |  |  |  |  |  |  |  |  |  |  |  |  |  |  |  |  |  |  |  |  |  |  |  |  |  |  |--- 1 
|  |  |  |  |  |  |  |  |  |  |  |  |  |  |  |  |  |  |  |  |  |  |  |  |  |  |  |  |  |  |  |  |  |  |  |  |  |  |  |  |  |--- work_type_children 
|  |  |  |  |  |  |  |  |  |  |  |  |  |  |  |  |  |  |  |  |  |  |  |  |  |  |  |  |  |  |  |  |  |  |  |  |  |  |  |  |  |--- 0 ==> [sick,healthy]
|  |  |  |  |  |  |  |  |  |  |  |  |  |  |  |  |  |  |  |  |  |  |  |  |  |  |  |  |  |  |  |  |  |  |  |  |  |  |  |  |  |--- 1 ==> ???
|  |  |  |  |  |  |  |  |  |  |  |  |  |  |  |  |  |  |  |  |  |  |  |  |  |  |  |  |  |  |  |  |  |  |  |  |  |--- 1 ==> ???
|  |  |  |  |  |  |  |  |  |  |  |  |  |  |  |  |  |  |  |  |  |  |  |  |  |  |  |  |  |  |  |  |  |  |  |--- 1 ==> ???
|  |  |  |  |  |  |  |  |  |  |  |  |  |  |  |  |  |  |  |  |  |  |  |  |  |  |  |  |  |  |  |  |  |--- 1 ==> ???
|  |  |  |  |  |  |  |  |  |  |  |  |  |  |  |  |  |  |  |  |  |  |  |  |  |  |  |  |  |  |  |--- 1 ==> ???
|  |  |  |  |  |  |  |  |  |  |  |  |  |  |  |  |  |  |  |  |  |  |  |  |  |  |  |  |  |--- 1 ==> ???
|  |  |  |  |  |  |  |  |  |  |  |  |  |  |  |  |  |  |  |  |  |  |  |  |  |--- 1 ==> ???
|  |  |  |  |  |  |  |  |  |  |  |  |  |  |  |  |  |--- 1 
|  |  |  |  |  |  |  |  |  |  |  |  |  |  |  |  |  |  |  |--- ever_married_no 
|  |  |  |  |  |  |  |  |  |  |  |  |  |  |  |  |  |  |  |--- 0 
|  |  |  |  |  |  |  |  |  |  |  |  |  |  |  |  |  |  |  |  |  |--- residence_type_rural 
|  |  |  |  |  |  |  |  |  |  |  |  |  |  |  |  |  |  |  |  |  |--- 0 ==> healthy
|  |  |  |  |  |  |  |  |  |  |  |  |  |  |  |  |  |  |  |  |  |--- 1 
|  |  |  |  |  |  |  |  |  |  |  |  |  |  |  |  |  |  |  |  |  |  |  |--- smoking_status_unknown 
|  |  |  |  |  |  |  |  |  |  |  |  |  |  |  |  |  |  |  |  |  |  |  |--- 0 
|  |  |  |  |  |  |  |  |  |  |  |  |  |  |  |  |  |  |  |  |  |  |  |  |  |--- heart_disease 
|  |  |  |  |  |  |  |  |  |  |  |  |  |  |  |  |  |  |  |  |  |  |  |  |  |--- 0 
|  |  |  |  |  |  |  |  |  |  |  |  |  |  |  |  |  |  |  |  |  |  |  |  |  |  |  |--- gender_male 
|  |  |  |  |  |  |  |  |  |  |  |  |  |  |  |  |  |  |  |  |  |  |  |  |  |  |  |--- 0 ==> ???
|  |  |  |  |  |  |  |  |  |  |  |  |  |  |  |  |  |  |  |  |  |  |  |  |  |  |  |--- 1 
|  |  |  |  |  |  |  |  |  |  |  |  |  |  |  |  |  |  |  |  |  |  |  |  |  |  |  |  |  |--- gender_other 
|  |  |  |  |  |  |  |  |  |  |  |  |  |  |  |  |  |  |  |  |  |  |  |  |  |  |  |  |  |--- 0 
|  |  |  |  |  |  |  |  |  |  |  |  |  |  |  |  |  |  |  |  |  |  |  |  |  |  |  |  |  |  |  |--- ever_married_yes 
